2.099658969689922605e-01,-6.498527788849303155e-01,7.645229914320427200e-01,-4.606539595365954920e-01,-1.898669941772123115e+00,-5.338359091721930350e-01,1.366427621704810358e+00,1.011926504730489063e+00,-1.025533094553072511e+00,-3.075722883558196785e-01,-3.682963617137897661e-01,5.997149055433472764e-01,-1.076192348261162168e+00,-2.630806501191667590e-01,1.133579911655693273e+00,1.879110928963756144e-01,1.746314922123916702e+00,-2.462166747593745320e-01,-2.025792887933849651e-01,-1.224137417783545227e-02,1.909484612202374754e+00,-2.718804994853084800e+00,1.876786072549855300e+00,-7.819656400992952561e-02,8.021322329608563395e-01,-2.586538074308992741e+00,-1.130785691189883702e+00,2.939621449701654843e-01,1.119963450743459710e+00,2.933063523180838850e+00,-3.119635135152507011e-01,-3.653021907358922626e-01,-1.388964415472434766e+00,-9.915889653078972799e-02,1.343569167960892097e+00,-1.441958152035032859e+00,3.382949196185716656e-01,3.498672215369646454e-01,-1.631609301185996230e+00,-1.054827610099674295e+00,-1.018204655640755213e-01,1.951433063973121440e-01,2.763878811016034831e+00,-1.310515172111314408e+00,6.094314666538654945e-01,-9.277140850509032477e-01,1.536571122343579843e+00,8.198170949691292453e-01,1.379148279453699777e+00,1.256116170838847301e+00,3.575073595038499308e-01,-4.694485767260933029e-01,2.757883207138376869e-01,-8.480687720482151803e-01,-8.594117293134021507e-01,6.276545231576512451e-01,2.316856821365686214e-01,-1.310868684985893706e+00,9.012868939051396078e-01,-1.308612012663078694e+00,1.600705349454611737e+00,-1.336589658344103038e+00,1.221059157345200985e+00,7.027265535937744778e-02,-1.090869623887866569e+00,-7.012210456258352043e-01,8.865449267657601329e-01,6.863387056807678244e-01,-3.983961155263159304e-01,1.553274461460825595e+00,-1.171885947921131210e+00,1.120963966719121352e+00,-3.518991277686960850e-01,5.820602885483494582e-01,1.328567110322892431e-01,1.296041515711788161e+00,-8.997115525365209088e-01,-6.471105799760851207e-01,-2.056127309206240206e+00,5.664540104685349409e-01,1.795388463446866145e-02,9.164013033794286001e-01,-1.068436919219228898e+00,7.774002739304505250e-01,8.028996620823339869e-01,2.809265564797669867e+00,8.681368043756108044e-01,1.587772404143179328e+00,-6.558726467746466005e-02,4.031709598715600418e-01,4.951447044982309476e-01,-2.545853498502412271e-01,1.115288135426268701e+00,7.373103313204552034e-01,2.362023556965414883e+00,2.484804247651408587e-02,-1.074256937811599366e+00,6.312796566735808801e-01,6.759107093171820013e-01,2.174193863728241194e+00,-7.930729031742669299e-01
6.654696715348246139e-01,-7.352257404326348889e-01,-5.032953885541060490e-01,7.932056220541207070e-01,2.313329042863318197e+00,-1.196755381974243582e+00,-1.061476465691131743e+00,8.449202518811985141e-02,-1.367092427982114611e+00,-2.652546624845076306e-01,-1.240074601586615088e+00,-3.528668078670524344e-02,-1.647456542330777429e+00,-9.927512708429441224e-01,-1.734901758883617973e+00,1.077958736494166514e+00,-7.987802198678926047e-01,-6.303393845101060711e-01,-5.797369175051682033e-01,-1.834159595780238350e+00,-7.305497736373492979e-01,-4.800301420893238746e-01,1.056722745478153591e+00,1.537549816831352834e+00,-8.744064133702676989e-01,1.841301074506904722e+00,-6.395030151622497216e-01,-1.144371097878958965e-01,-2.862429648629961076e-01,-3.684772578845669222e-01,4.511886921188676403e-01,-6.108888109122526666e-01,-1.762575763211195801e+00,-4.937243975373970528e-01,6.963404059245946742e-01,2.367138862149810841e+00,1.015015879211873751e+00,1.402470015223059141e+00,-1.534335627668421909e+00,-1.572243861382862873e+00,-1.157849362835290830e+00,2.049478216985752277e-01,-6.248191650118962714e-01,1.354423840175737137e+00,1.290634579708880292e+00,-1.275743712166443444e+00,1.042735871807606296e+00,-6.273572489269684249e-01,2.943382284648165204e+00,-4.664274212600763025e-01,8.858347134736727080e-01,-6.680855169845514863e-02,1.296355054546840746e+00,-9.648065343047282916e-01,-2.218591197378063096e-01,4.726075378599495225e-01,-1.088041008614490712e+00,-2.584680694397079925e+00,-1.189310894940899255e-01,5.491584406754558279e-01,-2.146645615464017887e+00,-7.479568669674384607e-01,3.889129438347070922e-01,-3.310503689301305119e-01,9.891303872239218808e-01,-8.486770787188785414e-01,9.517714948423614540e-01,-2.118451531575231972e-01,1.439482638157857153e+00,1.466340250319070782e+00,-2.197128570879666842e+00,-9.471838103519413243e-01,1.098224002462520055e+00,-1.092718615900388324e+00,-6.397346121670712815e-01,-4.434029214536532870e-01,-9.625915551875471321e-01,6.915598064926323785e-01,2.269160827536990943e-01,-8.018343159760971117e-01,3.836024325258254319e-01,-5.845631140246642099e-01,-9.544634038288585254e-01,1.747734396614995453e-02,-1.267068527873092876e+00,2.749596481658333480e-01,-7.107366287469468746e-01,-4.919757325939595471e-01,1.049332275944220516e+00,-2.094594672646644895e+00,-1.362922372889198375e+00,1.837720365620194307e-01,-5.168783906016561902e-01,-7.292113531359456502e-01,-1.370710147796003975e+00,-5.587852022494643744e-01,1.376508372197767782e-01,-1.645497020812797251e-01,-4.942351276071797472e-01,1.054749744282527102e+00,3.426601879424497343e-01
-1.002510736832581850e+00,-2.764329387710886543e-01,-1.681625802318371443e+00,-1.179135706495103353e+00,-2.188082153862072887e-01,-2.174744649477090341e+00,-8.856661844315117937e-01,-1.685188542977625603e-01,5.690924875013780859e-01,-5.877540930150173537e-01,9.015428208270060972e-01,-1.475095653020835451e+00,-1.724540851241392891e+00,8.294624477881995528e-01,2.029131215781632136e+00,8.374553276887890529e-01,-1.144663575971398561e+00,-3.878332262682652742e-01,4.170592801159948015e-01,-3.196329589452421294e-01,-1.311784943640466494e+00,2.399776769151197309e-01,-1.572316016084580381e+00,-1.871955662178837188e-01,-1.210120776083501104e+00,-1.068729589004999037e+00,-1.559142439490868171e-01,3.020894305032392202e-01,-3.035046424969751189e-01,-7.489827745709589646e-01,-1.523703149430212012e+00,3.181486340960431591e-01,-5.347070555438297734e-02,-6.156653719902546174e-01,-2.878657823066567145e-01,-1.583382587047217627e-01,-2.678280105531797850e-01,-9.663066297425029205e-01,1.281745982265698025e+00,-1.417154585671078770e+00,-8.919559516555228829e-01,-1.032378836063997829e+00,-1.314844787749203103e+00,-2.729834334138693253e-01,6.562400908239369723e-01,-7.605093397624704821e-01,5.245325812094003837e-01,4.776268285625234755e-01,-6.465731762653374216e-03,-1.016175491826302180e+00,1.821029968217125372e+00,1.308776569208514484e+00,4.665274565516888128e-01,-2.659341125706212172e-01,-2.061258188631257315e+00,4.310302646123746473e-01,-5.407548215876146758e-01,2.095782762745139471e-01,-7.801906538066376573e-01,-5.768247932646328735e-01,-1.955972556294483244e-01,4.597095022876779291e-01,-2.482861494435462113e-02,1.280239446562940198e-01,5.379122514720005022e-01,-1.925946915732203335e+00,-1.045279169281376319e+00,-1.312548445020869536e+00,-2.594006634725077309e-01,-1.611651187834437726e+00,2.335874204497819517e-01,1.723244303555779011e-01,8.413515502005607383e-01,-1.174915874295575202e+00,4.626440317265533841e-01,1.127698891759914279e-01,5.339892534740751096e-01,-1.978644371828023552e+00,-4.203299957826057143e-01,3.702511847549785906e-01,8.374233555573483700e-01,-4.960436371176502601e-01,4.481383979916287591e-02,7.906790798704522727e-01,1.065266633111858624e-01,-8.472865167215878901e-02,6.994630936549131039e-01,-1.350300723238130086e-02,2.014502396161580222e+00,-8.746266488154130769e-01,-8.921343682736669889e-01,-1.402029981998812180e-01,-5.338655920785487785e-01,2.201542395727380974e+00,3.858144578240537137e-01,-1.950062299370835528e-01,-2.999240234087659496e-01,8.905269466793271915e-01,7.166612504170087883e-01,1.044339144415920018e+00,-6.208178005516773457e-01
4.939187503814231883e-01,-1.243779042732625850e+00,-8.518491145586276625e-01,-4.296078284732265939e-01,-1.627232105080658409e+00,-1.547283374695022529e+00,1.538377327132182670e-01,-2.189608915005734346e-01,-2.471934622878061982e-01,-2.777002435443665651e-01,1.149560110144508984e+00,-6.884877504431784478e-01,-4.206283934715015355e-02,-1.458583195778389019e-01,3.097236728270966744e-01,-7.390415087577314468e-01,2.854768246962361977e-01,1.089172604883066775e+00,-8.954063793432165408e-01,7.274513202872162632e-01,5.920876251445009730e-01,5.087944362377543328e-01,1.065584098654697304e-01,-2.992171646012519171e-01,-7.158107591929745439e-01,6.759441653827245045e-01,-1.633914226344030662e-01,-9.800755991767126085e-01,2.701272415342467759e-01,1.287630275250905287e-01,5.201126125438713110e-01,7.871441731385966367e-01,5.835626684642961637e-01,-7.151644811546669089e-01,-2.137749185407697983e-01,1.575605562158188588e+00,-4.605301031989473409e-02,-1.535438882737563404e-01,-1.622715898314505689e-01,-8.280491064041088922e-01,-1.174441930513479004e+00,3.040657594331229729e-01,-6.170105425145170353e-01,7.066629377224211694e-01,-6.745288083358421671e-01,-1.225229969338827551e+00,-5.139414532810930858e-01,1.258867915048544228e+00,-1.255858865979403216e+00,5.540054498312150244e-01,2.786740290455283486e-01,-7.797331722588386471e-01,-4.794793337491963792e-01,7.590270277272228583e-01,-6.031995954619312483e-01,-7.870134874988890528e-02,-1.402213913840528070e+00,-2.174104449303451703e-01,7.269275845015903403e-01,-1.287393226072289787e+00,-2.375081389396865028e-01,-3.614236610822328943e-01,1.548671067891912667e+00,-1.125705731439819557e+00,-1.536846137028397230e+00,1.132063970311503187e+00,9.377862335066282640e-01,-7.775870151347406001e-01,9.743152002005693868e-01,-6.407066646931198761e-01,9.349043282728265736e-02,-2.837239155976921112e-01,-2.702578411893140076e-01,2.775810781150765960e-01,-4.518820335271487437e-02,3.720844366727801833e-01,1.621481430320540706e+00,-1.524756182488767597e-01,-2.791510876204497116e+00,4.245712330849056304e-01,1.111771533549074542e+00,3.798148795758602564e-02,5.578983642770898310e-01,-1.305812858268266874e+00,-1.018696839503751450e+00,-9.550991318328209134e-01,7.548089736515720127e-02,-1.151676320249121144e+00,7.422932004507849513e-01,-2.513160403190711101e+00,7.152159891665353930e-01,1.997596156621367081e-01,-1.671385938112119218e+00,1.143322620800082540e-01,-6.155873829999501945e-01,-8.826807859789173039e-01,1.122354601857013634e+00,-6.444353689695733745e-02,9.415626247858900344e-01,1.231807913717933634e+00,5.160122861218471163e-02
7.564187717834554014e-01,-7.362529285101725440e-01,-1.817700906702472752e+00,1.202112727806644576e+00,1.653874136672741635e-01,-1.196366456650052035e+00,-1.477071988417045123e+00,1.385270397825749900e+00,-1.246538697402678197e+00,1.169766979283812347e+00,1.419877523603107816e+00,1.968786159594306584e+00,-4.730952628802346238e-01,-1.631472429585284933e+00,-4.271020135904967097e-01,-7.749631747679220917e-01,-3.127281889496777434e-01,1.156692561910503070e+00,-7.472047926269231866e-01,1.720029291750849065e+00,1.203152191206819793e-01,9.623318192024934437e-01,-1.888523485069123042e+00,2.502834348843816503e-01,-1.635298628626524531e+00,-2.230603258938929911e-01,-5.370141951053728491e-01,1.467752906733153784e-01,1.461217039839493692e+00,-1.768344617629435067e+00,1.318090072623912645e+00,-1.960374611479308304e-01,1.119040458830482976e+00,-2.258600632376585260e+00,9.058335959490717570e-01,2.006981765089990155e+00,3.428522795464432615e-01,2.327808857978025669e-01,9.435326650226323331e-01,-8.466567015599213430e-01,5.308506734931748294e-01,-5.002042713761226667e-01,-7.981232088817513670e-01,-9.426474364962431629e-01,5.524722013259818487e-01,1.072278415040233135e+00,4.425087646638733996e-01,7.667359005687445217e-01,-3.540071274414985925e-01,-6.136990722444480850e-01,-1.335955242666319709e+00,5.996155128207719676e-02,1.324366721213015241e+00,6.742728207178934063e-01,-3.491554855550375591e-01,-1.786819995559532637e-01,2.234832582014159463e+00,4.591490250861600120e-01,-1.173405638305636156e+00,-1.758429343118231625e+00,3.840430618895698811e-02,-3.868260986850812766e-01,1.042246621621082531e-01,-7.021364351345351640e-01,6.432579675933683960e-01,-6.374656787729522378e-01,-2.189741053407206206e-01,6.948213322963309180e-01,-2.793634035517520986e-01,-1.983960929161834086e+00,-7.487874923905124547e-01,-8.399321722272904411e-01,-8.226736736062428834e-02,2.704707776323697077e-01,-1.524206670938760499e+00,-1.681515154120334810e+00,5.896548835252599652e-01,-1.860807296658340215e+00,-8.030188935195966549e-01,-1.040601550328939195e+00,-1.160584229750975416e+00,2.294310790895736751e+00,7.752495358716330331e-01,7.907213800499751644e-01,-8.451660647780520064e-01,2.755465257622683253e-02,-9.835392507547295882e-01,-7.374023173556405464e-01,-2.122419286427708940e+00,1.297785914552381827e-02,-9.627619671683443903e-01,-5.292906738907346975e-01,-7.237487072008713662e-01,-1.786104841851918312e+00,-1.483384731431043990e+00,-2.274983775864181990e+00,7.406596655525340411e-01,4.792204117321778312e-01,5.470983660084538514e-01,7.001729758528634218e-01,-1.059620291226041289e+00
-6.554086617423049432e-01,-1.371691556695268988e+00,1.870282381523913351e-01,-1.303321420732252156e-01,6.790821844127299389e-01,-2.501151685049163298e-01,1.676365476103797825e+00,-8.637037539723230184e-01,-1.484815876703616810e+00,3.193721061156025720e-01,-1.540380731146051341e+00,-2.958016280491873248e-02,-1.861460426293001236e+00,9.298286500941540522e-01,-6.721883226504192788e-01,-4.979549081868008820e-01,1.231534826205986199e+00,3.922680442634549070e-01,1.715347934648163930e+00,-1.483025621396639515e+00,-9.481674106228415999e-01,5.660035105140195366e-01,-3.036716454444339797e-01,-2.203128333455806054e+00,2.590693621068191344e-01,4.878694485897376865e-01,5.315993282348321358e-01,7.625802116244487783e-01,-2.220073289070507716e+00,-7.493765075322239566e-01,7.572802317258193749e-01,7.806373603702056185e-02,-8.361488542932142831e-01,-7.314189479717765618e-02,1.256099655159936823e+00,-1.604543417899870539e+00,-7.117068658114307222e-01,-2.633882620292942733e-01,-1.100321909727900033e-01,1.166532652538750270e+00,1.319876524084778513e+00,1.022705142669684264e+00,-2.011015266290326897e-01,-4.460682776034166630e-01,2.182086023843048117e-01,-1.536516309511502983e-02,-1.989664330983636764e-01,-1.789331778116626914e+00,-9.010337579798194385e-01,7.734771677344048912e-02,-1.712250377750357613e-02,1.655421831543086197e+00,4.478331314969139637e-02,3.170516524930992452e-01,1.217847314275909421e+00,-1.287087053211343868e+00,9.511117197321480865e-02,-1.454126464529365892e+00,-2.822483664023681671e-01,2.080340293550092257e-01,-1.318507459820517091e+00,6.578080012430129742e-01,-9.465782453187462919e-02,-2.840706830686824391e-01,-7.238787300636055633e-02,5.533308639293691433e-01,3.281347185240208741e-01,1.337745432471025842e-01,2.392017975791249196e+00,-1.607212559750288150e-01,4.278519571151793710e-01,2.576540710878268414e-01,-2.937478518440907460e-01,-1.540809434390269406e+00,-4.952624031686458927e-01,-6.312731167199892024e-02,1.046651804041581979e+00,-4.533285471154617496e-02,-1.714810847918671000e+00,-1.790332882877180509e+00,-7.986234721654951185e-01,5.744089091603006292e-01,-4.119349828022749738e-01,-1.267435419963439891e+00,3.822069022162177254e-01,-1.333356492745743083e-01,-2.241921914859556608e+00,-8.015360767576784617e-02,-1.129950950818761068e+00,-1.555151481454961404e+00,-2.135602143488713259e-02,4.697954749183260725e-01,5.266496345510786325e-02,-1.266264905704391541e+00,-1.733528995730542199e+00,8.442274693096956106e-01,5.424948003527123586e-01,2.351553143040165661e-01,5.539705203860267879e-01,-1.107547357575030311e+00,1.572005593625486752e-01
2.385089947997874216e+00,5.008575157625470148e-02,3.700692757025151464e-02,-4.209456223089053095e-01,5.734272065538553731e-01,1.970940579941254933e-01,7.563825349249839736e-01,-6.955766399640638253e-01,-1.802337875752015650e+00,-2.817233532628210746e+00,9.424211776190294376e-02,-1.620377141149036138e-01,8.455068982603423100e-01,-5.595745068963765556e-01,-6.209164491958960586e-01,2.028422141230427744e+00,2.235689301357914605e-01,-2.294166183714433094e-01,-1.421901346213335846e-02,5.661004863397504083e-01,-2.433152050874788586e+00,-8.007456737262220736e-01,-8.289302093812423999e-01,4.120026043070736388e-01,-2.224164782590562606e+00,-6.487815449651331834e-01,1.405466238290752345e-01,-2.407751012885229469e-01,1.967046790861319283e-01,-1.334919074697694663e+00,-1.628676000839071936e+00,3.811538587856804217e-01,-1.774733909554495392e+00,5.512870555225647395e-01,-2.011854038858942317e+00,-3.466957108328272419e-01,-9.691266997528585891e-01,-3.704565702346253320e-02,-9.260581928337533464e-01,-1.165239485258499519e+00,1.519134108554474505e+00,-3.190466318841871818e+00,9.419281377161691227e-01,2.758967161745836671e-01,-2.689941144043487276e-01,3.734140197675567263e-01,-4.786947507858410611e-01,-1.722987269551841116e-01,6.850954345074086183e-01,-3.469929603376906702e-01,-1.474801332896588379e-01,-9.651089807417542188e-01,2.439776083236487203e+00,-1.296938085226197579e+00,6.773401360190690612e-01,9.189551887991223023e-01,-1.045508095437852170e+00,-2.326183570100610609e-01,6.033199598065442926e-01,6.045478332541170952e-01,-8.588826968100969905e-01,2.964004889643735430e-01,1.519106741703726837e-01,-1.853673987448674731e+00,-2.317776690883617888e-02,7.724048071846448815e-01,-4.123828335648912491e-01,-1.154645823679402827e+00,-7.942038423445584305e-01,-1.487963435147778402e+00,-1.322545695485719319e+00,8.610424510057720360e-01,5.663076243641039786e-01,-7.093346641633943017e-01,-1.741865106603020852e+00,-8.474730566935347875e-01,-8.211806578383550326e-01,-1.699799836486125537e+00,5.680191962601979262e-03,7.583421125695367637e-01,-2.080700462210550494e+00,-7.233491072935831212e-02,2.761469350000143042e-01,7.189980812039246105e-01,-1.781557694574086748e+00,-5.649705369154919277e-01,-2.306421111648590205e+00,-1.647417389265040666e-01,1.540195100725284760e+00,-8.819517942272944167e-01,-6.944464448333591555e-01,-1.923271658444627885e+00,-1.838326773717729734e-01,8.479397919689457552e-02,-2.934649973471711304e-01,5.209543698233016773e-01,-6.791304602336968310e-01,-1.104342755597331305e+00,2.413827754232652223e-01,-3.058754006955359261e-01,-5.669593707358463464e-01
3.519425736560617413e-01,-9.632417877557573060e-01,-1.768344101895019671e-02,-1.365519308058456005e+00,9.978617149075492687e-01,-2.284898130316487530e-01,-1.541649095788992119e+00,-4.929310705377745738e-01,-2.470617844632052862e-01,1.614001433758061599e-01,1.836693340853842726e-01,-4.043987326124931503e-02,-9.301287521983683249e-01,1.032969927746692607e+00,7.942880438561632506e-01,-7.978780576786621559e-01,7.930214321241202402e-01,-8.979265867563102077e-02,1.261672980834901703e-01,1.167791963919005083e+00,4.943714946019451273e-01,-1.202503268734668618e+00,1.106611908555908519e+00,-1.050677504071177548e+00,-3.438172821976308025e-01,5.520400639169150692e-01,-1.658809226108886870e-01,-1.444109947895547030e+00,-4.350674165820100914e-01,-1.223165606124950511e+00,-1.003110452874521608e+00,-5.596419670561171289e-01,6.597390874548462181e-01,-7.145060987231122152e-01,-1.473411724337173601e+00,-2.391351981024014250e+00,-6.759977639585801334e-01,-1.880445936889203473e+00,-7.100035081858117048e-01,-6.678646939437682395e-01,2.633903023401236720e-01,1.079037060892392264e+00,-1.916749299722569466e+00,6.377182899891438161e-01,-1.379665978631392231e-01,1.735451147830241736e-01,3.379659800385458740e-02,4.816358462376130745e-01,1.275265678608730191e+00,7.316234572850003337e-01,2.115222402126489598e+00,3.971352807424021192e-01,-2.337640776225949901e-01,3.374772129574985513e-01,-5.287795053835075976e-01,1.035202289398318598e+00,-1.627411966845065727e+00,-1.861395040401963907e+00,-3.536126527372827066e-01,-1.383602658562455234e+00,7.552748428408392334e-01,-1.047216465658842334e-02,1.356487215915647582e+00,-1.435739003401939273e+00,9.297898583272311557e-01,1.651450239010893717e-01,6.959737741852450865e-01,-3.938613341607385410e-01,4.315368869054593270e-01,-5.242368944457175273e-01,-6.897232350870626805e-01,-1.062920884976257530e-01,-1.906919963910360116e-01,-6.622993923839671782e-01,-6.813579944792000909e-01,-6.564860537978899346e-01,3.034540079742323315e-01,-1.436902918845157417e+00,8.228671151153755803e-01,1.408959091692098431e+00,-1.282327157714895582e+00,3.548718661194101842e-01,1.360543054482984626e+00,1.017896952123447524e-01,1.527261059853075864e-01,-1.467277843875028631e-01,-4.841113501079507553e-01,1.377288936266586994e+00,-1.111052720307659447e+00,-9.945737519956787676e-01,2.901162551422373337e+00,4.823800176307861953e-01,6.400448147535121868e-02,-6.611534751648306951e-01,-1.611199352722878952e+00,-3.602698259192260166e-01,8.801166888207954120e-01,6.989486281084926755e-01,-8.219694625453628500e-01,5.162381059710077769e-02,1.165919445934357812e+00
3.315284739960899230e-01,-6.860060801499824334e-01,-1.198229765714632356e+00,-9.011545064652869419e-01,3.055898530247380118e-01,-4.049667312295175403e-01,-7.454972293320830112e-02,-4.926007996914352760e-01,-2.150514698038494543e-01,6.337496053706946908e-01,-2.779687595543852141e-01,-1.500615016537060642e+00,-1.940696016438488436e-01,-4.587886959323396185e-01,-5.295160483868117662e-01,-6.359461247290523755e-02,2.846312663420267342e-01,1.524267246951276356e-01,6.599581590886774984e-01,-2.116037141359757706e-02,-1.064846432672789112e+00,3.966473282207926832e-01,-7.524193997468564543e-01,-2.595207331893960578e+00,-4.021247961467598886e-01,1.317026266719915073e+00,9.969392822771923068e-01,-1.106842104588767528e+00,-1.378866656535614243e+00,6.715534467900282634e-01,5.933965625646253628e-01,-2.518972461514413230e-01,-1.394172472841792798e+00,-2.326538058280426924e+00,-2.449096419744104303e+00,-9.933702638774205562e-01,4.276054917611318285e-01,-4.025553741152790854e-01,-3.165149260693538857e-01,-3.326001248341961536e-01,-1.198162768719241544e+00,9.669065922466085761e-01,-7.625485872269374132e-01,5.712949452645952331e-01,7.281458870438696218e-01,-6.271250992990299311e-01,-1.197858338589238736e+00,1.058802009371974551e+00,-1.175025326599837272e-01,-5.843296702213736094e-01,8.677863341330513958e-01,-6.814841827706141775e-02,4.215290575281686047e-01,-1.603712227325256867e+00,-2.291744191443127743e-02,-4.772398032859115347e-02,-1.396741616585773116e+00,4.609934152820409636e-01,-1.693242369225869348e+00,3.511034061348917816e-03,7.066261412550589593e-02,2.758797375837127031e-01,8.278854715137906606e-01,-9.991077628980840064e-01,1.178354923384492547e+00,5.386978413572771629e-01,1.405164536832302358e-01,7.755836080152720413e-01,-1.588205470617337633e+00,-1.508418513833774677e+00,-6.989324865392673169e-01,5.390985832964868552e-01,2.056503633999899050e-01,7.342692169291500925e-02,5.550373358776174992e-01,-2.927298475295823654e-01,-9.160414286007893814e-02,4.590725212628442992e-02,-3.323923987047401329e-01,3.194985831043775648e-02,-1.375638821310445570e+00,5.573310874734335174e-01,1.817423752873572163e+00,8.358860937044596540e-01,-2.232822130211030487e+00,-9.334987771435785398e-01,-3.565723499684967379e-01,-4.613755932882748767e-01,-9.996265274539372081e-01,-1.747116039724025072e+00,1.835720318631722248e-01,-1.016772777890681823e-01,-1.232990134408959548e+00,1.070911661029112505e+00,1.013184940439293413e+00,-2.930881283482995037e-01,7.138149665297992552e-01,1.049344925822536689e+00,-2.944183038666747798e-01,-5.165711425768215737e-01,-7.105669471403588400e-01
9.469092029102275099e-01,-1.776719282832169400e+00,-1.626508729270052189e+00,-1.653230929123795878e+00,8.872804850957569656e-01,1.062600339456931886e+00,-2.334111766401057997e-01,-4.893066786463420859e-01,1.694307873884041693e-01,-5.947119587096000304e-01,-1.399886552921928429e+00,-1.408204990791894241e-02,-1.665480600581563886e+00,-5.191839121356423004e-01,5.727738991903182919e-01,-1.164213030240677016e+00,-1.252896361313513118e+00,-1.313757839311896269e+00,-4.250735839517744141e-01,-1.141792957373474332e-01,2.245756622902367328e-01,-9.155487472622013678e-01,-6.241663561686784378e-01,8.566816018560453605e-01,-1.370990800294151490e-01,1.431454750958791156e+00,-9.516521456611762853e-01,-8.043296226375202806e-01,1.316958931170554736e+00,7.521190932468877488e-01,3.778437827816150674e-01,-1.313562243171969568e+00,4.958404067472177990e-01,-6.572965136186423862e-01,-5.794526311362363513e-01,4.931055521442263140e-02,-2.420433897528769529e-01,-7.497873842065118088e-01,-1.377685130918505862e+00,-4.056683366861768003e-01,3.050346548280685188e-01,7.528751320062346819e-01,-1.781838457721291347e+00,-1.151828063746272862e-01,-1.990691731211121918e-01,2.085972864003260152e-01,-1.111001665535969574e+00,1.542290123961208292e-01,-1.100059085760667354e+00,4.915921209797110003e-01,6.094705607079332899e-02,1.181514202744442077e+00,1.042912773554730776e+00,1.653807463030716018e+00,1.213641776612128131e+00,-9.845166645524705551e-01,4.374783185010798214e-01,-1.347666597918736553e+00,-1.065078118703178811e+00,6.761929631662608742e-01,2.118056938618380070e-01,6.132124589423409988e-01,-1.933940802218840974e-02,-4.070492366736285228e-01,-3.208734407490599905e-01,4.043955981689874024e-01,6.346521717302823495e-02,-4.165708055701138335e-01,9.858714724129884477e-01,-5.445474085110162399e-01,2.102338470932326453e-01,6.246955446631232700e-01,2.339859869181634411e-01,8.762491918519342837e-01,5.644330304662670272e-01,-1.774135494599503371e+00,1.565001450477800704e+00,-1.582371216764678845e+00,-6.506224283216741622e-01,-6.082312714266389087e-01,1.659121410021383580e+00,-9.836990952889080875e-01,-6.715387209147466452e-01,5.669347785662278705e-01,-9.739271816431803730e-01,-2.794058706682977622e+00,7.130576131583723498e-01,3.964259922379468302e-03,7.297929041511672654e-01,-8.170036953903989652e-01,-3.994264563180003891e-01,5.414529822239935175e-01,-9.188345124295759225e-01,6.419884239906238355e-01,-1.485639699225109522e+00,1.587850584067569626e+00,-5.144076146390443860e-01,-1.259750651145727707e+00,-7.901812560555797615e-01,1.675799665233197455e+00,-7.826533254121381677e-01
-1.799972155971765631e+00,-7.819597254107211182e-01,2.370343606697030564e-02,-4.959937360322774769e-01,1.205484870988769108e+00,2.400388521369409001e-01,-1.692198636305177195e-01,-1.174660981519930480e+00,1.729938826213904601e+00,7.808766469051378056e-01,-1.432960146563707071e-01,-2.294296281717298491e-01,3.411862606127510911e-01,6.307684611650710149e-01,-1.185660193048673650e+00,-5.277512942333872914e-01,7.452998888376467512e-01,-5.353017903633519037e-01,-2.162121623708584739e+00,-1.873898774107972051e-02,4.421868366634313374e-01,-1.146402732621126574e+00,5.407222617795018893e-01,1.564975252713442511e-01,-9.511678457619893168e-01,2.807323725016979132e-01,1.888121568745920187e-01,-8.131502378008094167e-01,-1.123652884406070029e+00,-1.517250699668578839e+00,2.434517862629713147e-01,-9.184268888843546419e-01,-4.911266222267237080e-01,-2.391996828956420851e-01,-6.358357886826904171e-01,-6.863790607568588664e-02,4.825268104567476124e-01,-1.607800290593034198e+00,5.575474623900614768e-01,-7.425769290648661647e-01,-4.022744301322623284e-01,1.605694420665054301e+00,-1.767628860481494646e-01,-1.937765174006279567e-01,1.208020943854941631e-01,-5.593769937945414217e-02,-1.411674389719540068e+00,3.132338140300540696e-01,-1.073330308457901339e+00,1.031840987130343112e+00,8.323664530585125343e-01,5.854357643965181664e-03,-4.007407091579783254e-01,3.091976752579848053e-01,-6.583641006864897616e-01,-5.834515010433425353e-01,-1.379841205514395597e+00,6.927729212532974801e-01,3.912655315564392278e-01,-1.902786795471652193e+00,-2.095353778799119659e+00,6.966167366945594797e-01,-1.150434417093954442e+00,-3.338730561703645572e-01,-8.556663846665238937e-01,-5.309635978997414574e-01,-2.074875064049824525e-01,9.164477660929043479e-02,-6.759097574207412196e-01,3.726743243054094212e-01,3.205097808290610084e-01,-5.035968502545103836e-02,-7.207853185676919017e-01,8.555807692346412141e-01,-4.033269685074921534e-02,-1.551576524601981921e-01,-2.215179407649948029e+00,-1.025943758401842487e+00,-1.980878805285246402e+00,-1.179410178839911616e+00,-1.128145570241396722e-01,-2.919771607072109074e-02,5.669997799742768629e-01,-1.497590402532463116e+00,-1.606197131223299213e-01,5.962989148829753727e-01,-8.439643199214490465e-01,1.092851239787143047e+00,1.967951215866337034e+00,1.517237887888011061e-01,3.740531533931781838e-01,-1.379601526273509293e+00,-9.094581281495893454e-02,-2.040484817006244178e+00,1.289299492253192181e+00,-2.190478224854114142e+00,2.194194080548578896e+00,-4.971533636475136131e-01,2.411102975332285242e-04,-7.379606762720232194e-01,-5.070272411336684826e-01
-7.887243678078249831e-02,1.320798851280811648e-01,-4.581261508938375138e-01,1.839340730301423976e+00,6.465584133769144426e-01,7.018033428079515357e-01,-2.508969533951175279e+00,1.114633976071205054e-02,2.876532289564927236e+00,-1.446943084403430557e+00,6.594429944633659613e-01,3.591694279259529665e-01,4.253787252112640749e-01,3.456873512164119200e-01,1.624209060583278408e+00,-1.686720074224541399e+00,-1.104827746584273518e+00,-8.303737105933535478e-02,-9.298363886747457174e-01,-1.519034805719699621e+00,2.659245148853632279e-01,1.239348391256180681e+00,3.444529863982207507e-01,-9.567774912114480612e-01,-2.165668642486507256e+00,1.000468674571118877e+00,1.928990843924480447e-01,-1.099825199681988996e+00,-9.219763512110177306e-01,3.093720715644429076e-01,-1.917471678670316981e+00,6.056124200452964734e-01,-1.503301008992042442e+00,1.526760560236964714e+00,-1.345087976593788204e+00,1.406856301686591815e+00,-1.328560827080093487e+00,6.246095929677473180e-01,9.072139769806399912e-01,-1.568554962492687777e+00,1.187466516670225625e+00,-9.891665973850796156e-01,-3.156178449347372128e-01,-1.037267317464142469e+00,1.948138215104091575e-01,-7.432953399115241888e-01,-1.388582136759737518e+00,-1.703973566485233668e-02,-5.402918656448892909e-01,-1.976099997573784739e+00,-5.807337902586269252e-01,1.413974282511946123e+00,-4.073585543977371048e-01,5.543764641375509977e-02,9.898505475871954840e-01,5.976656088811051204e-02,-1.349696511047769887e+00,-7.019945330427549424e-01,-7.434575991460294908e-01,6.577418763780658040e-01,-1.939439174818618605e+00,2.395220179949512571e-02,1.247969839563600525e+00,5.482039076580783599e-01,1.572510298735265266e+00,1.003696942162490613e+00,-4.214455437997882692e-01,4.665353840534225416e-01,-9.619303520714969080e-01,6.185940690739561570e-02,-4.980434541835963014e-01,-3.507650634346295426e-01,-9.359129164165023163e-01,-8.135575133801248304e-01,-7.661273313638532478e-01,-5.875289112811737935e-01,8.604832364687132751e-01,5.905998759858736152e-02,-3.380200448351413089e-01,-5.720560273826248432e-01,-1.603716954667644856e+00,5.133931702757155158e-01,-8.914966565768348561e-01,-5.355447919191265171e-01,1.588401597085053324e-02,-4.958985128960743949e-02,-1.552239933045133302e+00,3.298134864423918344e-01,-6.444167651789267648e-01,3.672403086392704297e-01,1.099536443593933099e-01,1.217770069625714324e+00,2.783745867588360151e-02,5.799696051882234638e-02,-1.301552565220909452e+00,2.183861835739052751e-02,1.666110049831584616e+00,-1.930373363125332364e+00,-6.193296508531392908e-01,7.318826240453437659e-01,-1.096877744638029339e+00
-5.531387084378429631e-01,-3.796570742063679754e-02,-1.042608415453714743e+00,5.919788217641870354e-01,9.230492743187724836e-01,6.649184782233581448e-01,9.640209526121302774e-01,-1.418318227627680894e+00,9.947551428101240045e-01,2.739792140927880260e-01,-8.510734517766909146e-01,1.523043175919385206e+00,-5.942351473576354959e-01,4.696149327078233404e-01,-2.144477316521847809e-01,1.269224583876974233e+00,-9.782141346162050999e-01,1.402099560424823477e-01,1.176615674638185283e+00,-2.718229291979468720e-01,7.460891298356920887e-01,5.408911391126138835e-01,-1.691455507999667374e+00,3.646065987442007050e-01,-1.128652022058629578e+00,1.448121764665931677e+00,-1.104182055347683877e-01,1.501920446866186420e+00,1.613206554875138421e-01,4.199883686853257969e-01,-9.187513802184412715e-01,-6.063632712190224483e-01,-1.649327477680830045e-01,-4.070498997707220901e-01,-7.992675005439595637e-01,-6.090063818140570850e-01,-1.928446954784555079e+00,-8.607401035262799427e-01,4.119235869705935027e-01,-9.879862638244559792e-01,1.071394230445516627e+00,2.414744544217196087e-01,-5.907747223241549550e-01,5.592015787925355141e-01,2.106400297295445423e-01,-1.291463681491944016e+00,-2.419789912774367835e+00,1.430161572767849387e+00,-9.506820566278086915e-01,3.079784235530027003e-01,-6.782760695508587290e-01,-1.158964100677545073e+00,1.337166726805053107e+00,-7.361888529300215644e-01,6.690602738667656979e-01,3.454420218971170908e-01,-4.515215665484520469e-01,-4.019505022765924585e-01,1.002185668813637687e+00,-3.881621564147931525e-02,-1.013899870430526207e+00,-1.201400911419727491e+00,-1.653571041948566744e+00,-3.534834844687158029e-01,7.219737979766361891e-01,1.126950374301450175e+00,8.324759565170800624e-01,-2.971547365924984696e-01,-1.874192789637313172e+00,-8.194879716840258732e-01,-9.809649597960022893e-01,1.374404869120621209e+00,5.507226432953472584e-01,-2.299615044504732086e+00,-8.857521423241407899e-01,1.081119018843137158e-01,-4.152745817201756173e-01,7.925843943294587080e-01,8.678372888567537080e-01,7.238978941789293853e-02,-5.747426466569399706e-01,-1.667861857082745397e-02,7.338428702459307562e-01,-6.965570906626271652e-01,7.417166958471210769e-01,2.852850772654109690e-01,6.983261599224098726e-01,-5.940415009564887772e-01,-1.272101785503787497e+00,8.245142362732471586e-02,-3.201489365843059431e+00,-1.284026368445467359e+00,-1.216950371488227489e+00,-1.586395697976265673e+00,-4.017209576616792566e-01,1.651453987395280931e+00,1.004255417503105985e+00,-8.900285514657897412e-01,-9.303532522331131593e-01,3.402167410574142292e-01,5.739022594120503085e-01
7.750397725368186608e-01,-1.122444278746738133e-01,-1.313357890888742219e-01,-1.867071895181614316e+00,-1.076121040049078603e+00,2.261744032279234540e-01,-2.646028837204546402e+00,-1.584046394459481810e+00,1.553575094453622407e+00,2.006204078822356740e-01,-9.315633894198726006e-01,-9.849573308086970180e-02,7.246574173829735122e-01,8.466459341604355426e-01,-2.605664836369327997e+00,-8.714140347109743390e-01,4.298835153484987792e-01,-1.387594101319245210e+00,1.200349558941912892e-01,-4.038236877758069610e-01,5.777555253721506912e-01,1.292984664944938134e+00,1.042934145245965283e+00,-1.173458444961672509e+00,1.962876761552146410e-01,2.055662053296389402e+00,-1.705880450031064477e+00,-1.235877551245377459e+00,-5.996442778216221070e-01,1.504330124315843842e-01,-4.657000704179434791e-01,6.855756646566453227e-01,4.959194596786223319e-01,-1.973090763738122588e-01,-2.047269772734983395e-01,-6.809520241781916727e-01,-2.040189611918241663e+00,3.949924340436027775e-02,7.599199901837420945e-02,8.000675279499280812e-01,6.343217392211758510e-01,-1.157804176433881782e+00,-6.437098434952052139e-01,-6.366451906819208251e-01,1.265372106629048421e+00,-1.661557607182282181e+00,-9.003862173995877960e-01,3.778440409365942387e-01,-3.323062769167148822e-01,-1.332872229868689695e+00,1.369046035116420645e+00,2.570824080018443425e-01,-8.346380725383267807e-01,-1.427875373872963038e+00,-6.369048978497986457e-01,-1.330485634557005525e+00,-2.227200198377618789e-01,-5.375271696127928989e-01,9.706649231723344373e-01,-8.146741500745179332e-01,-8.801278480123488901e-01,-8.447737292865313830e-01,-8.201827505243919347e-01,-1.178570869199094373e+00,-3.465657598394735611e-02,-2.659021587169750900e-01,-1.713811027636830686e-01,-8.236471142291311720e-01,-2.315079357356642831e+00,-3.362489947499630039e-01,-9.728336935490496454e-03,-4.016104042838359311e-01,-1.268208154813002420e+00,9.705189664567898111e-01,-8.532827490806543791e-01,9.670197574791676853e-01,7.778999273069412412e-01,-9.301296484193691816e-01,2.707995455313809696e-01,-1.675129527239178906e-01,-6.431453537689628686e-01,-3.113371481265876928e-01,-1.544648108350137106e+00,3.382426399623459923e-01,-3.635388110518916194e-01,-3.590786636599798132e-01,-2.628123144803307110e+00,-1.089339875054811557e+00,9.006461220478947372e-01,4.272521828661167698e-01,-4.142759196090049501e-01,-8.114224933880709312e-01,-4.068163272196486657e-01,-1.308063083001636651e+00,-5.815968400157655038e-01,-3.750016377921826516e-01,5.250871671699479659e-01,6.976186779811502925e-01,-8.739388024251671938e-01,5.567178820993520239e-01,-1.248831072231005646e+00
-2.213944990776521404e+00,-2.450979596369065927e+00,-1.337995833430400738e+00,1.814648579199451828e-01,-7.786567793314127517e-01,7.435292182814884354e-01,-2.145017148310168320e+00,-1.210115469489452034e+00,7.820503736498870540e-01,-3.753685412416464251e-01,-1.050088488423002619e+00,-2.838034738568115944e-01,-4.499379699060913618e-01,5.345649374550246469e-01,-3.809544437493787572e-01,1.874729994281404410e+00,9.332366255385220466e-01,-1.091776220285361587e+00,-2.022507011309100655e-01,-1.741829112546162017e+00,-5.448613811308443688e-01,-8.076397622066240345e-01,2.726574498726127560e-01,-5.354094726225469003e-01,9.552162064055860213e-01,-1.967626930961219045e-01,-1.732680845048294893e+00,2.311740864237038728e+00,7.935632323585323222e-01,-2.028953816234954743e+00,1.439350012350645858e-01,-2.392333770786668534e+00,-3.215106380790354323e-02,1.534431863839129884e+00,-4.891471929846694655e-01,-1.956924954935007843e+00,4.894364079476196117e-01,-1.621795305175803559e-01,6.273924709121631027e-02,-1.667815776447102882e+00,1.921157497775555223e-01,1.564593356466134955e+00,3.696149579292639653e-01,2.237235471253213426e+00,8.039032390446141374e-01,-4.299357397458140606e-01,1.547439302769313851e+00,1.591945552066775349e+00,-1.503593173588139709e-01,-2.370460317364180725e+00,-4.170800104912345541e-01,5.166143968718435453e-02,-6.070616712669845150e-01,-3.810731129005896500e-01,1.013176245534564007e-01,-1.016535430616897440e+00,7.499291501325378029e-01,-9.762317816618576449e-01,-9.689639084724448459e-01,-1.248758233103739013e+00,-3.094476093220496771e-01,3.895137535569137555e-01,-1.280814455257703433e+00,1.489537117434198976e-01,1.285317945900049441e+00,-8.886133634197925790e-01,1.476217941857060900e+00,1.600477746861298955e+00,1.080182873612589134e+00,-1.189639891514015835e+00,-1.281528885742519552e+00,5.862840626869614269e-01,7.269388467646217267e-01,-6.219687199597823124e-01,-8.165919946636817084e-01,-2.441291676869529748e-01,-1.629836514145587556e-01,-3.011796079043420615e-01,-5.980193934396520472e-01,-6.500203135390879572e-01,-1.336330223062210054e+00,-2.429244017974147851e-01,-8.353303360559585222e-01,-1.283629056333672969e+00,-2.300620680784370709e-01,-8.126053478990659107e-01,4.587773798994470020e-01,-1.025607810598423875e+00,7.544234893034229561e-01,-8.785468425305206774e-02,1.277630019733559052e+00,-7.341297301889526672e-01,1.065038566894743299e+00,2.128607429285272190e-01,-5.661130157294110843e-01,-1.327940535534686717e+00,9.363661556630488159e-01,-6.082054619785473570e-02,1.436825222067244189e-02,2.164801144854768822e-01,1.030821690315920192e+00
2.272854106130257068e-01,2.377223363063281636e-01,-6.334615740085519642e-01,-2.706678666888189255e-01,2.758150441298295785e+00,-2.190655518259184698e-01,3.914905616326612159e-01,-2.794300503327846741e-01,8.192649366265758459e-01,-8.268720805716008870e-01,-7.758104744880654768e-02,-6.602790785414016650e-01,1.455234594171728700e-02,-2.776407332932835370e-01,-1.851699298183825393e+00,1.794989150635942998e+00,-1.036138453180197594e-01,1.090554195605037968e+00,1.572509604760469193e-01,1.909363693626205727e+00,6.808796314260416593e-02,-4.450902572256911771e-01,-2.206689295091449621e-01,3.521520735568599569e-01,-1.126816837311890751e+00,8.644639746354469967e-01,-5.270048147594858651e-02,-6.601652095033547774e-01,-2.295791648118838513e+00,-6.549423805279037669e-01,4.261655785691875753e-01,-1.361309340650596500e+00,-4.383417179914956829e-01,6.014112507095262794e-01,5.820147009205165478e-01,-2.148584259717844711e-02,1.317053234721563548e-01,-2.853046748835397217e-01,3.188643060196171275e-01,-4.305835607335654625e-01,1.741102063320571824e+00,4.652883955760102053e-01,-1.157568765632572161e+00,-1.198765243023030280e-01,1.089803463480732315e+00,-1.388633448155971672e+00,-1.258454224716100578e+00,-4.378656829322564170e-01,-1.272415892417334771e+00,-6.752376866440285008e-01,-2.117685775797665926e+00,-1.818683585947415748e+00,-8.484938962013479635e-01,-1.467208929928164318e+00,-1.112506217216143733e+00,-9.298055529128753660e-01,3.425599669407123488e-02,-2.764001817250902326e-01,-9.526922469138116023e-01,5.632126929482225153e-01,-4.111585913650331880e-01,2.641388297202625357e-01,-1.565740913830719006e+00,-1.372643283690011096e+00,3.449268883175869260e-04,5.183794735789176711e-01,1.638698850029058462e+00,-7.033541663409232925e-01,-1.119196762645735976e+00,1.919219872468139743e-01,1.077684396034066738e+00,-1.838579972437820897e+00,3.416195427274515972e-01,-3.326331931325131608e-01,-7.287684741919022713e-01,3.432305964976918311e-01,-4.055561965704978719e-03,8.578268462220096646e-01,-2.174919220808281040e+00,8.275804304140360612e-01,5.985242106012027552e-01,-2.222831373307427305e-01,7.718659790554701673e-03,6.125192150442627659e-01,-6.336575773983575965e-01,-3.426399912409599513e-01,-1.570314647261781271e+00,-7.006743016241472333e-01,-1.297045534200626182e+00,-3.485755144218824920e-03,2.360530004447654040e-01,4.656748821069495725e-01,-7.107505820179781109e-02,7.171571534411752546e-02,5.834807608936588563e-01,-3.032855902052984942e-01,1.417741147963394566e+00,-1.651214888875625064e+00,4.594647321942704199e-01,5.610176475623606107e-01,-5.405893559970214035e-01
8.266751917504910896e-01,1.260118371597425124e-01,-2.254495808224977527e+00,-1.046648834542245332e-01,1.037116722390189150e+00,-2.031536545202369926e+00,-8.402281412001598726e-01,5.015727804970396830e-01,-1.163202573326228340e+00,1.087891200293694682e+00,-8.822307307668000309e-01,-6.915778909782391848e-01,-8.993703351757794673e-01,8.409149781295733872e-01,6.206484022604651374e-01,-1.552563116915706587e+00,-7.465292705172011933e-01,-4.863681867163019978e-01,-2.307510454303388359e-01,-3.861653772668707796e-01,-2.041437722460955895e-01,-6.452769597324277129e-01,-1.205477220172808561e+00,1.159570550215906160e+00,-1.041403306602115109e+00,2.375946827533582939e-02,-1.294450388364078330e+00,-2.522096070146091426e-02,-1.161576850366444029e-03,5.206999933088918286e-02,-9.541515842647855239e-01,5.401424702309499670e-01,5.374388615582157414e-01,1.528575797442438822e-01,1.951536527786769337e+00,6.581005577435684595e-01,6.438864762217690885e-01,-1.003450331670156626e+00,-2.238860982990942272e+00,-1.149959362333477175e+00,9.435989914663494016e-01,-3.670139646995903421e-02,-1.044465800922307563e+00,-4.905874659676249805e-01,1.639635496926489244e+00,-6.930399622228279322e-01,-5.738410507236968439e-01,1.823882821538087007e-01,-7.575681871950037394e-01,-6.813223221795591256e-01,1.409753191691778929e+00,-2.361596873300937649e-01,8.859959122473834991e-01,3.855166936372629860e-01,-7.580777727696295099e-01,4.894092256703617694e-01,-7.780011769083827744e-01,-2.934020218039112282e-01,-3.392160707443177964e-02,6.906322841108953892e-01,-2.960410203331108381e+00,-4.761888750630362543e-01,-5.010163819224027204e-01,-1.459862616826253623e+00,-1.836540919676790562e+00,-7.899741699186083599e-01,-4.711062827133959824e-02,3.061225675900143273e-01,3.726912374102415160e-01,-1.918003303921929359e-01,8.725293430379984505e-01,1.848806685242378733e-01,6.408905030246032641e-01,4.356807912363762081e-01,-4.190831789755741776e-01,-1.370173703227642314e-01,-3.402449288689612383e-01,-8.845976500139387522e-01,-1.054292102287106792e+00,-8.418242093690631034e-01,9.682744536735742313e-01,-4.528262910625400206e-01,6.650144002587622394e-01,4.411601699496015550e-01,-4.505424193142502087e-01,1.306778516718869243e+00,3.118235998284388799e-01,6.270636312184927341e-01,-7.472548747610104902e-01,1.794813929472078087e-02,1.755327040996897958e-01,-2.269682955924504641e-01,-9.037140174563514927e-01,-3.446762398757766688e-01,-1.173347741756399332e+00,-1.531483316342086898e+00,2.418799332294999938e-01,1.156509994174036438e+00,-6.990267273582482233e-01,4.616208254777403597e-01,3.278832744716732583e-01
-2.273666336260568577e-01,-1.330110283234818037e-02,2.391291744513914241e-01,-2.005559126109676960e-01,1.302266553814926286e+00,-9.467493966469558986e-01,-1.634264096997263493e+00,-7.884945033591888031e-01,9.659382791926208744e-01,-1.213897349571883000e+00,-2.057925726209084913e-02,-2.076182462993013678e-01,8.553503172718705805e-02,-1.372932925463826552e-02,5.375145483942183056e-01,2.885323519011159243e-01,-3.959696826911922041e-01,-1.548935000469341849e+00,5.817328966902635123e-01,5.985078102563816393e-02,-1.259905148569176792e+00,-1.056492200758220923e+00,9.657687255963347539e-01,-2.719824439896962875e-01,-1.939568395566206416e+00,5.600241166570466556e-01,-6.718448770794768210e-01,1.114813503949585449e+00,-1.319040935910413603e+00,-1.439400123736684023e+00,-1.592252289708923962e+00,1.812335519331371492e+00,-6.947258376585145889e-01,-3.338369514243662572e-01,-1.323086997686481636e+00,2.827560597264270892e-01,5.998431408518301033e-01,-7.305107925492350107e-01,9.968455219354588337e-01,-9.214534324503418361e-01,1.696619379739837008e+00,-2.420288300305809825e-01,-1.325147507953882975e-01,-2.196376445287024914e+00,-2.013095997888204869e-02,2.036640269344258125e-01,3.581975403887741605e-01,-2.805112268609094017e-01,-1.567078178505150410e+00,7.452943512752137067e-01,-4.458873986672188816e-01,9.510914726677924813e-01,-1.199462598533828084e+00,-4.150314619486082379e-01,1.372605244439425221e+00,1.006300090686409021e+00,-2.180846705323113977e-02,1.034017783340658747e+00,-7.223507589134688933e-01,5.559025080549288012e-01,1.199811134447199279e-01,2.973825882806216958e-01,7.696981893452643497e-01,2.209901672401365647e-01,1.017465706762546107e+00,-9.573409851746154109e-01,-4.846223882451755616e-01,-4.885500046757600967e-01,5.877560388027284199e-01,-6.572117442177847213e-01,-1.408274578115872866e-01,-7.874395721973100892e-01,9.465320424474804595e-01,-1.010720990106916961e+00,-1.107948450565300780e+00,-1.049289038802652341e+00,-1.057989849453445874e+00,2.637516260493125153e-01,-1.747668059325543810e+00,1.499284910989930442e+00,-7.917265877227884774e-01,-6.210680926714531314e-01,3.887762427986012903e-01,2.961919679622416202e-01,-4.188012418435273498e-01,-1.895701134243646502e+00,-2.235789185237802013e+00,-1.059800048668645134e-01,-1.855523292811323000e-02,8.176293296756175222e-01,8.402045157742753512e-01,5.420833751071328921e-01,-2.430317909304628710e-01,-1.104580335832739069e+00,-9.878103150189971871e-01,-9.303295291035962311e-02,1.153646184483921866e+00,-1.567526925790941328e-01,-9.311403131676444511e-01,5.524796839436467710e-01,-2.694309181425338373e-01
-1.912430770770173205e-01,-9.570835449866261779e-01,-1.745695451236628282e+00,-1.189730993388236513e+00,1.836311273990684834e+00,-1.085075231450516459e-01,-6.710650104769136370e-02,-7.263459713202817802e-01,-6.934774543038040029e-02,-5.021577406631188012e-01,-1.063237689619427773e+00,-7.506943338200180449e-01,-1.119624230530112508e+00,8.837382424729500752e-01,-6.748702026966603151e-01,8.539650532069243960e-01,2.484682915942060810e-01,1.874883523341265845e-01,-1.538461947704994559e+00,-7.605751059447376505e-01,8.842757761441658593e-01,8.899399657553055398e-01,6.112763588786497282e-01,-4.639964761441253693e-01,-5.209891328351101691e-01,1.945552369019566852e+00,3.049883809858782158e-01,-5.025097242046431267e-01,2.509201112202282258e-01,-2.264179423218403431e-01,-6.148174531798056286e-01,3.650604245463102693e-01,-6.212789165657339741e-01,1.024389983194625486e+00,-1.690206998434510055e+00,2.108700734554167233e-01,-1.292350119118707702e-02,5.488454977852258443e-01,2.259581403740181571e+00,9.970767957713284613e-01,-2.904185409992997291e-02,-4.164321202580657522e-01,-2.930380498180363835e-01,1.043872898587839548e-01,-2.286266775225679559e+00,-6.552801474915103119e-01,1.173059820415989662e+00,-6.702965916929508605e-01,-3.399809545169198421e-01,2.482443320798288500e-01,-4.523045038207011426e-01,-2.435086166299774924e+00,4.169809854033316998e-02,7.384663919742374683e-01,2.856039189610187212e-01,1.221209472000886809e+00,-1.007008144975618968e+00,-1.769437810127671984e-01,7.417779032773189618e-01,-8.413754610390141719e-01,-2.023978629418231368e+00,9.039988477718547966e-01,-6.053276815341569472e-01,-1.224728641341134239e+00,-6.886177019034189772e-01,-1.061176844614207582e+00,-8.823905244546158544e-01,1.357778955225941164e-01,-1.435246287665304266e+00,3.867515637248656879e-01,9.389311994010420825e-01,-2.069889786227114004e-01,1.360226956061824310e+00,3.526999487358052632e-02,-3.380767530597806325e-01,-8.960496420921526539e-01,1.036373456939798654e+00,-2.189747477224678995e+00,-1.602871578568810795e-01,-6.846574449170695909e-01,-3.030654136870357673e-01,-1.141984432839627583e+00,-5.059738170522216638e-01,1.903294314868674952e+00,-1.209138221163214899e+00,-1.143030520922743154e+00,7.582790161177105359e-01,-3.637714213274100827e-01,-1.437344501411011777e+00,-1.390526687729394695e+00,1.916075682714430073e+00,2.942951308418070844e-01,-1.787738642171049219e-01,7.049025579234277084e-01,2.561801315779325683e-01,7.084898703400829278e-01,-1.079311175831251024e+00,-1.473554579503339124e+00,-6.460332736408825882e-01,1.527108823654471370e-01,5.377012545328542226e-01
-1.251791545131665018e+00,7.641075737447265981e-01,3.357748854163604413e-02,-3.015959046769244867e-01,4.305476428953304846e-01,-1.816954538767851624e+00,2.818426640512448622e-01,-1.274575280904350627e-01,6.591766086757527843e-01,-1.850758523941268940e+00,-1.068124475503344994e+00,-2.550756646990821053e-01,-5.408958341759827482e-01,-1.182293076406442323e+00,-7.420522087580931903e-01,-6.069811429880488385e-01,-2.114489656975782061e-01,3.505077871680746804e-01,8.477760852633038635e-02,-4.537396621703831262e-02,-1.068301021327802358e+00,8.671728324807662647e-01,4.569236616348127389e-01,1.195141283080423944e-01,-6.065003570399557509e-01,-8.138149547007464957e-01,6.212469555401015642e-01,-2.506221652451561255e-01,-1.174812606564270778e+00,-5.431036988962362200e-01,1.812254694945981237e+00,-1.648991721140015798e+00,2.529836120754224815e+00,-4.548930423005168588e-01,-4.284952873922238115e-01,-5.569078755769327760e-01,-1.762251719396827232e+00,-2.895008033228950728e-01,-6.754462021887954748e-01,-6.365973000188943631e-01,-6.369398021458676507e-01,3.948755921833375648e-01,-7.018138610989149706e-01,-4.884576955954145205e-01,2.364360101827406579e-01,-6.151494657664390298e-01,4.161992673412288624e-01,-6.789077599076986935e-01,-3.081295242597918982e-01,5.748850772457648334e-02,-9.402862286732551755e-01,5.712372626608692716e-01,2.423854416411757917e+00,-2.583895264918519175e+00,-3.006744009590566966e-02,-9.217004829781590969e-01,-1.195123628621814760e-01,1.954157843850093113e-01,-5.935521552186230343e-01,-5.296916463522075569e-01,-1.309247021450574838e-02,-1.180288805050983880e+00,-1.433841775477219804e-01,-1.016074605920737506e+00,6.382710411063763356e-01,-1.590134648711317988e-01,-4.004681433279028147e-01,-7.383480670560553516e-02,-2.403573498000435016e-01,-6.048050211273441334e-01,-9.120415761791736409e-02,1.285086362655113001e+00,-2.370309430806033291e+00,5.981643238622758041e-01,-4.765962867163091032e-01,-7.200601005909625929e-01,5.095824445915643208e-01,6.514515406258730712e-01,-3.687424974683721768e-01,-1.779542000259079215e-01,5.771172295394211282e-01,2.114057993213759035e-01,-3.361423175180973666e-01,1.068366814804261600e-01,-6.428354156745046399e-01,6.118177777282232110e-01,-6.983362493021957329e-01,-4.208215876063292060e-01,1.931099225137196396e-01,1.781404825683413351e-01,-1.504379222805131811e+00,-7.552355951826635883e-01,-2.070123785928348337e+00,-7.760916943561723125e-01,-1.432444623718209131e+00,1.084379279663935103e-01,7.948223795485696019e-01,-3.054784488045498292e-01,2.238952315626232537e-01,-6.881759591168663537e-01,3.536670094856734226e-01
-1.581726873599554217e+00,-7.279135637303493223e-01,2.115740860569852166e-02,-3.317358091702089090e-02,1.003106831910729024e+00,-1.002890540495451122e+00,-5.275093183428969379e-01,-1.317873779065325879e+00,2.137625290728012661e+00,-6.871362759186175895e-01,6.204938113273508055e-02,1.098136385982941166e+00,7.432688521911954282e-01,2.108171674648180893e+00,2.923382719735911905e-01,-4.764189930121276451e-01,-9.887092983275547198e-01,-8.480574589725178303e-01,-2.039430443861132286e-02,-7.309050622471414682e-01,4.467244750105940909e-01,-2.918294217367540799e-01,3.358468754934627043e-01,6.212236243317671436e-01,4.233187695254674865e-01,-6.016015712510955904e-01,-3.935940088946224824e-01,-2.398417373744056169e-01,-3.330075528213728431e-01,2.645074684927704589e-01,6.475494963812685745e-01,-1.246946959131227439e+00,-1.246811705705355378e+00,3.783268692465596716e-01,-1.473987651625211281e+00,2.045635436756777281e+00,6.048351648901628685e-01,7.407410389385336025e-01,1.141813899571034963e+00,-1.618496563951132616e+00,-3.329217163299373894e-01,-1.499508689769719183e+00,-5.523901659013802368e-01,1.629762624512268498e+00,7.620061022737378842e-01,3.527873759462701320e-01,-4.167619055963504571e-01,1.035081967717868867e+00,-6.270165373122477126e-01,4.756238085107002966e-01,1.950864158943207860e+00,-5.998714943626435314e-01,-1.130334277506583190e-01,2.030552858010898354e-01,-1.501652437422623221e+00,1.196689139342881791e+00,-6.947395460035378223e-01,2.953723019168200126e-01,2.666448828399285986e-01,-9.908525701361701188e-01,-1.768736666040060079e+00,8.678932358169126893e-01,1.763070617140765073e+00,-1.475443199444251285e-01,1.168371042800334658e+00,-1.320327442632182935e+00,-1.003464588055487106e+00,-1.049119289610368488e+00,5.994166268312866030e-01,-2.189511358879209002e+00,-9.184290576691278574e-01,1.504279895918993193e-01,-1.117472603452740909e+00,-1.468651885575487759e+00,9.695173927982113637e-01,8.943555299352307086e-01,5.881077466459999625e-01,-1.202102177549540185e+00,1.431149364636820742e+00,-5.515773138678851106e-01,4.163346132707309577e-01,-1.775748049858611177e-01,3.087995414145158768e-01,-1.306830662707700430e+00,-1.602008411607097171e+00,-1.234194158604941194e+00,-4.111241611175798782e-01,-3.590324614274737480e-01,7.903934194600863439e-01,9.340677922435570713e-01,1.770707913687977197e-01,-1.218801017100867412e+00,-1.055827748963096502e+00,-2.171610585443081165e-01,-1.436818654694569819e+00,-4.318039426487277344e-02,-3.051588673093482917e+00,-1.512297908469056873e-01,-4.371637624218472906e-01,1.266090003740533598e+00,5.572511449993017285e-01
-1.982305423766320018e+00,1.862177939273991500e-01,-1.011028639148448871e+00,-3.232786386300779413e-01,6.111708106294603260e-01,2.316929890348979060e-01,4.877363300451191819e-01,-1.210935115838190912e+00,5.618786260020056655e-01,3.035578231910011637e-01,-5.339633024941136119e-01,-8.768803238982804116e-01,6.546856771687705745e-01,-1.470526302342251707e-02,-1.356623609353150739e+00,7.296067588115906499e-01,-9.284265174300221357e-01,5.690599551477724116e-01,-1.387008014645891851e+00,-3.796295181659558260e+00,-1.445978848256314953e+00,1.179643707351592408e+00,5.131289742428156719e-01,2.002674507384976099e+00,-9.072728768444879854e-01,1.848936005881528233e-01,-2.040777474144700676e+00,7.724217679970262207e-01,-6.061402304246089612e-01,7.112899884288456098e-01,-2.946274557418181450e-01,4.226140379186208995e-01,3.191724358917500948e-01,-1.536592030955830079e+00,-1.203766361505679283e-01,7.031666943095790101e-01,1.168766100760557092e-01,-2.660020008841242345e-01,-2.114888952472820660e-01,5.285946263090810504e-01,-1.112604168443348085e+00,1.520893629752738119e-01,-5.788930499359824511e-01,-4.844346179033656719e-01,-2.550493775070596381e-01,-4.637014266110411204e-02,1.225031298838598293e+00,-3.433232410436546367e-01,-1.538937929609384136e+00,4.330094553659035728e-01,-9.025741572004797320e-01,6.220881841931410472e-01,4.868649878549692611e-02,1.016348841567281891e+00,2.605640961153427582e-01,5.991776964362718338e-01,1.341968267362255274e+00,-3.696403396212050163e-01,8.770198814764493256e-02,1.226760912161819927e+00,-8.751584143387772796e-01,1.695812069396230026e-01,2.119171567059423111e+00,-9.420287923812806774e-01,-6.174031426936853473e-01,4.610088489972554715e-01,-6.120226479009536202e-01,-1.056299792350982522e-02,-1.088447793902658445e+00,6.330855852657074623e-01,5.951008133875719253e-01,5.255321650868888250e-01,2.482320268483792503e-01,-9.283959697052535098e-01,-7.968279975633228984e-01,-5.527769604213923493e-01,-1.718559214417675618e-01,-3.049973449667757186e-01,2.078372870825279328e+00,-3.361838905508378605e-01,-1.285272463053587666e+00,-1.266930416610638099e+00,2.190204027255324148e-01,1.085530585650372193e-01,-1.761504516663356723e+00,-1.709563657829268557e+00,-5.563579254410015995e-01,1.295078513368429496e+00,-1.317810564431004527e+00,4.371708630120588190e-01,-1.504419153780570895e+00,5.086049096333332686e-01,6.559303883627889409e-01,-1.421550840448807307e+00,-5.098957424303776076e-01,-1.741330951577496067e-01,-8.236527492659772021e-01,-1.896448022973110437e+00,2.873265435604713813e-01,-8.816556147466839688e-01,-4.785475425123690840e-01
-9.538464512000603968e-01,8.213147407768777164e-01,7.753827026623644203e-01,-2.669242546569638441e-01,5.748249990104823404e-01,-3.746666224238577314e-01,-1.046700545493148560e-01,8.877512990875920940e-01,-5.166133421964125283e-01,6.418215656669553626e-01,-2.134757808242472521e+00,-2.662967756520102092e-01,-4.412754779555146389e-01,8.382825704637587583e-01,-4.671927289281134488e-02,-4.218546892807746307e-01,-1.630621244182994811e+00,9.453968254868782006e-01,1.384545789278209815e+00,-6.843617872405785008e-01,-1.975538983441729624e+00,4.115546025377254669e-01,-8.510060176745293248e-01,1.174294842454897125e+00,-8.056561110423773320e-01,1.296138947149282572e+00,-4.491194856886075448e-01,1.663981867432280159e+00,5.270995172489839620e-01,-4.393594454892048029e-01,-1.093426749663989062e-01,1.401255263914615024e-02,-1.040464389438962467e+00,1.195524748218202843e-01,-7.245972783565353403e-02,-1.570391475658821756e+00,1.572523582417436616e-01,-1.469093546325719313e+00,5.934740156872354566e-01,-4.442469615515137193e-01,-4.047958668079878475e-01,1.742359478571105236e-01,-1.273188378469646720e+00,-2.421220023261747123e+00,6.464553972449441632e-01,-5.359698595759495587e-01,6.229321870028979857e-01,-4.979140246345032939e-01,1.711091886494170433e-01,3.021013624614003468e-01,1.002764707193457117e+00,-1.505506620043481236e+00,1.108940031870476184e-01,1.183645576469717131e+00,-3.822079931597862634e-01,1.031855786159257216e+00,-4.053309722145899685e-01,2.897195272737166372e-01,-2.341629861927626344e+00,-7.841221479528190930e-01,-9.352284708530896884e-01,-2.034652257045926338e-01,1.127204994111381087e+00,2.729769131002900973e-01,2.092738150266048314e-01,-1.214666475844655424e-01,-2.286640586360022542e-01,-8.509421457184888071e-01,-3.889118543820278134e-02,-4.862574308017170166e-01,-1.074205716117453635e+00,-1.083462335350440231e+00,-3.898763263701080506e-01,3.931591299001226947e-01,6.375108737100277922e-01,-6.650892187620077722e-01,-8.782526694370598186e-01,-6.241242208174352379e-01,-8.115752134663534179e-02,-2.706741762246715477e-01,9.954189441309678477e-02,-4.828023637647522737e-01,-2.101072552263841597e+00,2.508873871840484604e+00,-1.220962103787947228e+00,-7.714563977220849633e-01,-1.341233511924944555e+00,1.428706059873844803e+00,-7.828934233792297359e-01,-4.193701508901838682e-01,-5.015748756737938852e-01,-2.005325687445061789e+00,-1.883613518257706065e+00,-9.304235921553473121e-01,-1.385133612325800678e+00,1.133840415636347077e+00,-2.618957207912087637e-01,-3.154957667458651027e-01,-5.317633167189868282e-02,-1.156854890944514908e-01,-5.223201124456914313e-01
-9.320404474594337074e-01,1.996854823815124469e+00,-1.937996313294897410e-01,9.675084741995647331e-02,-1.613152362782689586e+00,1.205173503595081019e+00,-7.438005652602119877e-01,-1.945215163559466665e-01,-1.136518357508994548e+00,-4.934178975663020550e-01,3.865159972749356299e-01,-3.217386708232489845e+00,4.628637691608721294e-01,3.854490736901343695e-01,-5.902779100178533467e-01,-1.266387703968225864e+00,-1.596839526399947751e+00,4.238361909446303200e-01,-1.659392083926129802e+00,-1.376714303947499385e+00,-1.167603566824416683e+00,-8.692374201756015717e-01,-8.549922601159127833e-01,-2.558517352048438553e+00,1.253163643618728562e+00,-9.386812325830318215e-02,6.729182657381557187e-01,-5.383396356291755280e-01,-1.247589736974784813e+00,6.052100656606542728e-01,-1.161378306555342466e+00,-9.651866738682651770e-01,8.674031089735676492e-01,-5.591520345562136507e-01,9.707155237636606593e-01,8.369702484008400001e-01,3.146494276521224487e-01,-1.924846905772307007e-03,1.487193208759124641e+00,-5.197242386658172952e-01,-9.217030325165929128e-01,-2.234960999087796940e-01,-9.867976280503178987e-01,1.533064622248031972e+00,5.027637076096368451e-01,5.252281061740956547e-01,-1.713294812610144158e+00,1.418493735696769509e+00,-1.432318396857131138e+00,3.372752735050606465e-01,-1.598841351205404049e+00,-1.391651324749769936e+00,1.224016698797409264e+00,-1.218836102807159483e+00,-8.452298701666797198e-01,2.041981271515497021e+00,-6.384002736568151759e-01,9.218120229512596908e-02,7.900009990269308835e-01,-1.366984133610438246e+00,-1.380641504853940660e+00,-1.274908904049579572e+00,9.530593086758555599e-02,4.530948651302414421e-01,-1.441912444074174404e+00,-5.582625042539420823e-01,-1.330478436424283872e+00,-5.804176686440032373e-01,6.588295367764558375e-01,-1.761847793767777448e+00,-4.196889189739907988e-01,-9.559745882959204133e-01,-5.134876885750466746e-01,4.518969284758682092e-01,-1.366564787979606344e+00,-5.195635009755615874e-01,-3.003670269569035156e+00,-9.792422820649904214e-01,-1.356142769892699773e+00,-2.605947157775062584e-01,-4.210193923058110910e-01,1.797336400077035046e-01,-9.039177008862718798e-01,7.183574105699774837e-01,1.293953032257788127e+00,2.287855073598131506e-01,4.279905352834534882e-01,1.452715175813625859e+00,1.473387619198035292e+00,-1.273159242977038641e+00,-3.248785791335863093e-01,-6.074255493520376303e-01,-1.334910460846429947e+00,-4.019171853495493579e-02,-1.718536531116787947e+00,7.851451891595537802e-01,-1.646301346562222823e-01,-1.168601985445312019e+00,3.394722955933211495e-01,2.145035082448958075e-01,-5.005758211656621270e-01
-2.023826826875648965e+00,-2.853021451769420569e+00,6.188147879570962129e-01,-8.747467854912167606e-01,-3.282518792446318390e-01,2.252814703136754859e-01,-4.298074501860341678e-01,-1.126258440798490135e+00,-5.298170251743020698e-01,-7.259812581347044880e-01,-1.989703151549233606e+00,-7.232014381462505970e-01,-2.824050731306988471e-01,-8.126637551801754178e-01,-3.047382239916531042e-03,8.263928654919903138e-01,4.682601673263616648e-01,-4.531549713595846574e-01,3.025507714765601208e-01,4.615456832914676122e-01,-1.470022283091141801e+00,1.138162140551715495e+00,3.831690440640941886e-01,1.176447328001500453e-01,4.465236831048302601e-01,-6.923592837381244980e-01,1.978618014856110552e+00,-6.779411205292715063e-03,-3.929591330321566267e-01,-1.799459966392858323e+00,-4.634251054115694490e-01,-2.444652380607528486e-01,-1.098839472852469301e+00,-4.318401166309616679e-01,8.491531926939005492e-02,-2.360225611052681749e-01,3.396352067287959353e-01,-2.138665759613022077e-01,-7.788138082236291115e-01,-8.059766812893889298e-01,-1.229874268227455492e+00,-6.242137603422576175e-01,-9.991220159507435694e-01,8.668244973317569269e-01,-1.274998560511448442e+00,-1.526344572000504218e-01,-1.872621225742867823e+00,-6.875242129430487736e-01,9.989834511743868051e-01,-1.755705746216467356e+00,-3.101040244722583217e-01,1.409119087081286970e-01,4.405958378551911442e-02,-7.935041834108501613e-01,-4.915251232629267442e-01,1.091844179418295147e+00,-2.766105574192350147e-01,7.765697776150586318e-01,-3.141217649330831363e-01,6.561655335014436874e-01,-7.079948527057053909e-01,-2.018042937650511570e-01,-1.793228840186503747e+00,-1.317234257372367878e+00,-2.008428656792858202e+00,6.984719163317477664e-01,7.996080802238123564e-01,-3.917316422112210317e-02,-2.080961838389766783e+00,2.524511732765751804e-01,3.159322594086859115e-01,-1.128895915898131097e+00,1.746638998647847441e+00,1.172945373106053513e+00,1.405241507040748683e+00,-8.766794460012136136e-01,1.217385401446030302e-01,3.387017465059318222e-01,1.481273380358975267e+00,-4.972442506390515327e-01,-1.228080780659786875e+00,-6.284916231404190645e-01,-8.526773215534945161e-01,7.767876856124634743e-01,1.929782003168390103e+00,2.793768646582190374e-01,5.862555388734869144e-01,-6.232219352738879170e-01,-3.876002182660405193e-01,-1.087835846505542658e+00,1.579023558918639880e+00,1.046900048952744966e-01,-2.839170978692210578e+00,-2.513970104301661568e-01,-1.481072618884979208e+00,-1.390841225430377914e+00,-3.561030986835113099e-01,4.368728596532176489e-01,-2.198540665825216012e-01,-8.658319942653840418e-01,-6.150644456537281979e-01
9.791594610794978060e-01,-1.400430080390924870e+00,-4.645977406676250476e-01,-1.371544295039679451e-01,1.340467078228470887e+00,3.871587283700594906e-01,-1.921672135782909185e-01,7.060034636033543642e-02,-3.278040331921343586e-01,-1.206581729138514580e+00,-6.436641604011601459e-01,7.661040727692620678e-01,1.057666860090157979e+00,1.249079793870579769e+00,-1.302629554718319538e+00,-1.796182415260069387e+00,-1.570525663317010046e-01,1.204214438500794682e+00,-3.953131564718549429e-01,1.591480945313081596e+00,-1.170952644843169743e+00,-1.547588850995250231e+00,7.561915579565441359e-01,-3.814293400185441163e-01,-1.204333514365745761e-01,-5.009999883024818246e-01,5.352454376066196895e-01,-1.609150066200455420e-01,9.394746851822584066e-01,-8.380011824555775313e-01,2.000183335848396027e+00,3.216166270987381726e+00,1.743673603298561414e-01,-1.345744411972893184e+00,-3.366429622651227749e-02,-8.335705071426361412e-01,-1.517496860838187800e-01,-5.566902173241752294e-01,2.652646818786136840e-01,-1.367735346331613311e+00,9.355836647468597500e-02,7.337613097759234648e-01,-1.107044725098234927e+00,-8.181187274791568154e-01,-9.466235721575935180e-01,-8.530127425133453567e-01,-1.978058682211787156e+00,6.847896445512375863e-01,-7.883019105362664147e-01,-2.369254695191888693e+00,4.160943679886001667e-01,1.106441533785634257e-01,7.426818113717162939e-01,-1.330046092836437488e+00,-3.224130147889322506e-01,-1.222476658207289457e+00,-1.969132299831032551e+00,-8.241018386956211472e-01,3.233867822759322608e-01,-1.897157801530059973e-01,-1.439400196405781651e+00,-3.121486594374906498e-01,2.396673937565172718e-01,1.517284439151493081e-01,-1.905308046065595118e+00,9.362493614435625222e-01,-4.567478415733993713e-01,-8.594979376553759653e-01,7.337597316189763408e-01,-6.046070454849452602e-01,-8.624600480113647771e-01,-2.128938043678381131e-01,1.288273568090776422e+00,1.150769545450860409e+00,5.906883501931498026e-01,-5.660233991013184918e-01,1.412104434060330593e-01,9.840504864562182874e-01,1.951957748353451427e-01,3.729508058202041232e-02,-1.029768519148334782e+00,4.549817708260334714e-01,-2.440989815941158880e-01,-1.056061248711566813e+00,1.778461900995022826e-01,2.124241392293169106e-01,1.473764360750093871e-01,-8.919760394597880948e-01,-3.482315831490281344e-01,1.246299239127013792e+00,-5.067251264672776312e-01,2.325519493768932189e-01,2.135476508057768466e-02,-8.697586959333045709e-01,-5.801108907607317455e-01,1.788926777650514888e+00,-2.017031287379881022e+00,-8.847415403863194694e-01,1.024757521837800445e+00,-6.553477518097220456e-01,-4.421170859537204012e-01
9.720183198058406082e-02,1.079378215049707324e+00,-1.985201775800659485e+00,-9.384044880626501994e-01,2.454452042818651980e-01,3.126967546917486795e-01,-1.153698092453396551e-01,-2.762785257306765718e-01,1.987635361423683467e+00,1.393760065559199512e+00,2.551093190077497463e-01,-7.096651817963801553e-03,-2.001486149290292171e-01,-1.206076484154728012e+00,2.280744201308959052e-01,-1.448482234373257294e+00,1.074339254331225568e+00,8.155690581221994861e-01,-2.822930746570326832e-01,-2.592729891232654627e-01,-1.966646433490754298e+00,-1.005535748785555406e+00,-1.147264594529554982e+00,1.852277028159878824e+00,-5.576077718177857578e-01,-2.475937360346303628e-01,-6.036310037856263966e-01,1.226913770754970434e+00,9.593813353847223668e-01,-1.221764779372718435e+00,-1.109009527229865455e+00,2.927816312667069765e-01,2.302976463578671584e+00,-2.794802959499127049e+00,1.947736172323611958e+00,-6.300442723021212332e-01,2.739448724776675781e-01,7.727866690763758595e-02,-2.255809513882803541e-01,4.898874327006486618e-01,-5.032567144720616614e-01,-5.884575718190084848e-01,-7.805197509770441799e-01,-1.478379486421808608e-01,1.438632141426610778e+00,-6.425443994577941798e-01,6.800331250191982146e-01,-5.348294654440414186e-01,-1.802513311946410290e+00,8.356553842217739891e-01,4.341958705095530502e-02,1.492559240393440456e+00,8.758986845118726938e-01,1.467343153169976822e-01,-2.321990622501678980e-01,-5.423916831410175998e-01,-2.062089449429257204e+00,-2.627245753200999068e-01,-1.377636940876737048e+00,5.587812008745851600e-01,-1.234635046491253441e+00,-1.309327269811251027e+00,3.054189439543020246e-01,-1.079872097458456581e+00,1.915788438718313280e-01,-1.606403616782186461e+00,-3.602200636447139281e-02,-2.780859372512006766e-01,1.117446189537652845e+00,-5.857433807078322729e-01,1.581897797443639009e+00,-9.841120263742785257e-01,9.852435104803778376e-01,1.078404557687890675e+00,-6.141177778305921819e-01,-1.533620714291562825e-01,1.340505636275033163e+00,1.106503367866251253e+00,-8.110246985463619440e-01,1.108154683817665687e+00,5.264842597518856193e-01,-9.899975479531902822e-01,-5.889448456986105113e-02,-3.464489078127300559e+00,-1.209516173351350421e+00,-1.245755719985737892e-01,-4.998198472047427621e-01,-8.773930088551862294e-01,6.450429678558755597e-01,7.851612754354498902e-01,6.259068491823891467e-01,4.814860823422597025e-01,-9.185929382768794893e-01,-4.317976630043760533e-01,-1.284992272621229281e+00,-1.340580375071748653e+00,4.723470317205109570e-01,1.216213554593170293e-01,1.292278861907800724e+00,6.658388736227648375e-01,7.679607723204591174e-01
3.109620276290231966e-01,-1.163232036936791891e+00,-6.645440031760327937e-01,-7.769810382914521529e-01,1.183733800803637326e+00,2.073010819226655255e-01,-6.833596598125122323e-01,1.306877795966768563e+00,1.793972401787159443e+00,-1.943771803645092918e-03,-3.472256099837936483e-01,1.079309819173278895e-01,-3.618811134444873678e-01,-5.337985619894918266e-01,3.532928378799349289e-01,7.992348642757997057e-01,-5.117193418578949160e-01,-1.589678196506960628e+00,8.961049187797743842e-01,1.309701404995450735e+00,-7.069455653410141593e-01,-8.053446078113460915e-01,-7.433234998545994454e-01,-1.925723514795396052e-01,-1.339043580843546799e+00,-1.502779731402898333e+00,-1.255015186095876034e+00,8.360067153425259079e-01,1.103231722820281480e+00,-2.940575405797252878e-02,-1.430428409081045293e+00,7.942446523983973661e-01,-6.493433439858231626e-02,3.283030387479757284e-01,-5.503156867098943361e-02,-1.932484114371211481e+00,5.170149003913161456e-01,-2.217926071339008764e+00,2.416921117722702128e+00,-7.973431649557647383e-01,-1.431005774907990746e-01,6.823403535396244113e-01,-1.187788272013845070e+00,-1.128859183650350317e+00,8.901276931188001340e-01,-1.073902317093778702e+00,-4.876374715607994514e-01,-9.475086744924479110e-01,-3.017389122339531604e-01,-9.664168521837087633e-01,1.765155062979115452e-01,1.330581118064273483e+00,-2.569209968747965811e-01,9.839980874019345070e-01,-9.056094378415457946e-01,-1.125935964188672367e+00,1.174947655009339620e+00,-1.054967512879842362e+00,-1.753779590949955391e-01,-3.321618421290877810e-01,-1.198553282636806827e+00,-5.399361766644319438e-01,9.995679717427251587e-01,-4.125207564898666912e-01,1.150748562251160123e-01,7.657144404116426051e-01,1.038533901890815070e+00,-1.588205623276902401e+00,2.313632673033108600e-01,5.522734619671618855e-02,-2.349432553934398954e-02,1.130741971572605475e+00,-1.602327289993580095e+00,7.780704970277761701e-02,-1.272159142586235747e+00,1.639268753696969949e-01,-1.529867505194778765e+00,5.122032282102152445e-01,1.427887986910387097e+00,1.709149748630820476e+00,5.092003013584460724e-01,2.719817384816308525e+00,2.578655316257471575e-01,-1.038611526369262045e-01,-3.677254268216436639e-01,-1.467269468846042757e-01,-9.064845325773231988e-01,-7.959887290107108271e-01,1.054103495073811445e-02,-1.472802852237365956e+00,6.778885508498003754e-01,-3.760281535424685462e-01,-1.113824996543484949e-02,3.114246507239052386e-01,-6.361080927597608792e-01,4.582475127385922109e-01,6.707708964805723095e-01,-2.300077587581474126e-01,-1.053265341239816438e-01,-1.344803267559376569e-01,-1.177232773183686687e+00
-7.995626833445603765e-01,-2.969714868560316412e-01,-1.302330742092917770e+00,-1.600863451814831695e+00,-1.156903734867332112e+00,1.088986352918386746e+00,1.121630259212074820e+00,-1.554709874028734617e+00,2.860840955041948352e-01,-8.604768667433729257e-02,1.513191009403048293e+00,-3.160885889966821960e+00,1.522984679034419253e+00,-3.945759297973476243e-01,-1.375482036232715810e+00,-9.656116953795973457e-01,-2.175383844136665745e-01,6.677612123519291454e-02,1.534445467647337580e+00,-4.908947224270016063e-01,-6.654763266626712026e-01,1.166386933203420018e+00,2.478552577185458572e-01,8.380597948370706041e-01,-1.551424581904653932e+00,3.916282007582903013e-01,-2.403032460400987835e-01,-3.756975862227758811e-01,-6.415733699616954500e-01,1.212143508615750820e+00,4.421945127630130257e-01,1.271611863063564218e-01,2.664125088477585224e-01,2.073942392110355581e-01,1.329823823650939929e-01,7.161966796615698572e-02,-4.239390260304216895e-02,-1.396711215514899462e-01,4.494741610863809411e-01,1.714377055846624254e-01,-4.353234306213493721e-01,-6.365912399982167624e-01,-1.431797913026924829e-01,1.882592882164390247e+00,-2.181414512960948293e-01,4.385139274698828249e-01,8.627411121348875778e-01,8.524674960223681541e-01,-6.655444214632368904e-01,1.936852719435466774e+00,1.479087028273051940e+00,6.119823179742668318e-01,-4.094207528990789213e-01,-8.267100688964079680e-01,6.091212398672299910e-01,-2.206930009838284357e-01,1.717343295196883113e-01,-2.165965456336338413e+00,1.821057093595826459e-01,-1.939120695763069335e+00,-1.867484870283320664e+00,1.647247263716463017e+00,8.629341357781963318e-01,-6.525714261246741144e-01,3.229057908660694642e-01,-2.391759821416198362e-01,2.865656538742396564e-01,-1.235172305148895422e+00,-1.135220679625188245e+00,1.261361807745530750e-01,-1.379846665114155269e-01,1.161280644354674818e+00,1.055764465387012851e+00,2.206426625583556705e-02,-1.662399806821021342e-01,-1.714208744424791986e+00,-2.053942465788218819e+00,6.987178686690874718e-01,-1.011804199526729287e+00,-1.379372179651208619e+00,-4.602918695222358303e-01,8.151164733425767528e-01,-1.327896418440133397e+00,2.795485419545602410e-02,-6.574550887372324626e-01,2.004584593813789617e-01,1.589107807840816067e-01,1.926052843713660367e-01,1.441038239429381917e-01,-2.159872588476131394e+00,3.881718395269954103e-01,-1.756593561118102942e+00,-5.356160456235137257e-01,1.144935536452244440e+00,-8.994932745552954856e-01,8.336434354028922078e-01,-3.260276103635235123e-01,-7.165489254177699330e-01,-5.816246126833977126e-01,1.444575609773111280e+00,-1.325227821482469537e+00
-1.516480029211233482e+00,7.550047799746144594e-01,-5.614787709945643357e-01,-1.073352747196325785e+00,-1.282628654114984723e+00,3.935299572156022996e-01,-2.129210990669048176e+00,1.280520342599506867e+00,5.411091389635964699e-01,8.758557845234780925e-02,1.469043053806798449e+00,-1.987013434172750781e+00,-6.984578068977146392e-01,-9.223551312302011862e-01,-9.158699084290475856e-01,1.236164646966136704e+00,-2.132664258518692790e+00,4.316065976709287932e-01,-2.358447919570139106e+00,2.020837160542411137e+00,-1.376446989823689737e+00,-1.252265870248847168e+00,4.556207561387544680e-01,4.441421680190167365e-01,2.070567851493140821e-01,4.854375914871931208e-01,1.459353212077194595e-01,6.534217501332515443e-01,5.819081186521513072e-01,-8.670201703973483554e-01,-2.833634814470517682e+00,3.208819699837797690e-02,-1.472642542438150404e+00,-8.766918080496575172e-01,8.545998515578220323e-01,-8.803568769370498925e-01,2.180327369074437083e-01,-3.797468156254656391e-01,-1.240655955372950370e+00,9.201409761701488943e-01,2.105470814844427607e-01,-1.356351703804892672e+00,-6.836352729157944008e-01,-2.260462738560932716e-01,-3.404722764250689981e-01,7.161624435980237235e-01,-1.093965402326367631e+00,7.962429447756762535e-01,3.004543722492666880e-01,-6.141674609706588850e-01,8.377287192014698514e-01,1.170371291558647719e+00,6.139608632863247095e-01,-3.804432859529254252e-01,1.078503103830223742e+00,4.806879757065248837e-01,-2.061708888754745228e+00,-2.410495460088903086e-01,-3.990701892791521099e-01,-1.660640796701526645e+00,-5.626297810441925618e-02,1.469128927979186372e-01,-1.209417709690202791e+00,-1.146562487462389202e+00,1.556001343906397327e+00,-2.656914335198066635e+00,1.168508416778644809e+00,-6.245406816427681029e-01,-1.520482366999633017e+00,-8.838645896417510750e-01,-8.818765083221554724e-01,2.794079143382458552e-01,5.083290163810784135e-01,-3.048285472356037640e-01,-2.357685659673050882e+00,-1.628663640644974153e+00,3.997075922645419027e-02,1.113811806000800930e-01,-1.792344676629481270e+00,-1.411373852510226845e+00,-7.241444678588861150e-02,-4.230957323863848152e-01,3.683044138539596779e-01,1.127286928373155174e-03,1.521545052416034327e+00,3.444688677144973621e-01,-2.599638947224796048e+00,1.042557806432794276e+00,2.080660852154803120e+00,-4.055295434760022300e-01,-9.480777823040830166e-01,-1.142899287733197822e+00,-2.876600497426631819e-01,-1.777663672882288937e-02,4.237504611983728409e-01,-8.110115045593302430e-01,-1.090048643675437488e-02,-5.210277206921860582e-01,-2.470172496476371604e-01,-5.268754007760092506e-01,-6.009700187581366038e-01
1.396589727391342350e+00,3.570446239074867578e-01,-1.668124954292830475e+00,-8.285580899840684355e-01,2.816101180032013485e+00,3.995667391408544988e-01,-1.519686632520919956e+00,2.756167891475347353e+00,-3.275551394094494140e-01,-2.116434077379349521e+00,-2.970298505260572375e-01,-6.508647334914197113e-01,-5.376397201335018083e-01,1.365157865801769788e+00,1.514704274389440386e-01,3.335720757112304313e-01,1.221254526643876126e+00,-1.286392348066196289e+00,-5.956758873725394032e-01,-5.642904519883250314e-02,-1.605100385406270869e+00,-6.348851190607998074e-01,-1.787538156008340096e+00,-1.396522549430388560e+00,-9.416519274697680020e-01,-1.504351101308465666e-01,1.059060365807124177e-01,-8.680893397177501525e-01,-6.453972258460237699e-01,-2.078264059650025697e+00,-2.409248438735837328e-01,-1.238222225227418649e+00,-1.922785196108382499e-01,-8.913177948773948200e-01,-1.545260521470230186e+00,3.160578236573176603e-01,8.099514869656094795e-01,-1.333607146264464083e+00,-1.121191469595138823e+00,-7.742248101289233020e-01,-8.001223194757887125e-01,6.950814650539268724e-01,-9.104156192804765402e-01,1.167239004962919324e+00,-3.917741453733291079e-01,6.462776857470330372e-01,6.461338935143297046e-01,-4.981225519816259162e-01,-8.673931943546745460e-01,-2.217641091600770942e+00,6.570530906287505579e-02,-9.882190078292750757e-01,1.992792188831743694e+00,1.495619996039127431e+00,5.610334241604024719e-01,9.751087471886381586e-01,4.072167725802257610e-01,-1.222148362589309700e+00,1.873464452551855342e+00,2.578014294508378934e-01,-4.622982997923428816e-01,-2.982277062622730401e+00,6.307799765209590737e-01,-7.741380856178241565e-01,7.579659313756000882e-01,1.600286061597131215e-01,-2.375773218383013877e-02,1.574156813697452362e-01,7.120022041044109518e-01,-1.926079837413563034e+00,2.654987458090781252e-02,-1.865953756148943210e+00,1.635891115873991941e+00,8.867766353417789738e-01,4.592996601512999016e-02,-5.437888035909197448e-01,-5.372144274265236996e-01,6.251376679630382682e-01,2.844134799450716011e-01,-1.104216138961208182e+00,-3.047008476457527815e-01,1.421532531820726808e+00,8.987998299998889440e-01,1.509810511548892731e-01,4.258279009960052042e-01,-6.397652208783980443e-01,-6.376888284973619703e-01,-1.239091331019115616e+00,-4.652994245206600876e-01,-6.226905803467844280e-02,1.424275937018300020e+00,1.016878725538206130e+00,1.191764183308496455e-01,-1.405430497498279196e+00,9.624710963038817235e-01,5.308537543868017128e-01,-7.470098467924173313e-01,-5.866453244788956134e-01,1.625942186883943819e-01,-1.213453257921972339e+00,1.444384847098986402e+00
3.947673928482294814e-01,5.081769382789060874e-01,-8.038448587022725134e-01,5.364522542847701692e-01,-1.597598650051318181e+00,4.638485234865386553e-01,1.710426570172334459e+00,4.377708239763576925e-01,-1.504030008123916407e+00,-1.176215583846732970e+00,1.241463761003141347e-01,-2.930695232380175486e-01,-8.060347353962409311e-01,-4.972809594435573799e-01,-9.407588035959748574e-01,-2.836011685302992635e-01,5.419632687927437020e-01,-1.760919865215604951e-01,9.146135990875161603e-01,3.346066901029096652e-01,-2.296610538270138224e-01,-3.411795766368500710e-02,-9.883751049649468490e-01,2.389886731887429783e-01,1.621220487144683919e-01,-4.544177146385569577e-01,-1.405688426430378613e+00,3.496553835605705762e-01,3.156384245509872288e-01,9.026511851133565134e-01,-1.246209673227145043e+00,4.123919816657701243e-01,-2.302053732689890442e+00,-3.189915253261304540e-01,-1.862527106290345902e+00,-1.363618439387260378e-02,5.501223269543557004e-01,-9.519896011715700546e-01,-1.840997370283774082e+00,-1.277951093147305928e-01,-4.435805202532055458e-01,-8.673863639792352975e-01,-1.446499407555106753e+00,-1.578642410190204126e+00,2.045863332595675432e-01,-7.885724876346257295e-01,7.083153011479874639e-01,-8.668447846630208953e-02,1.382914500643325773e-01,-1.886859150290655984e+00,4.926766580532039863e-01,-1.524156801761143987e+00,5.890983993299010457e-01,1.019118292786652225e+00,7.378884857401051267e-01,6.692363800671892182e-01,-1.048805614387534613e+00,7.584695303947083245e-01,-1.294611549519155969e-01,-3.343643560013257465e-01,-9.458007483389400116e-01,1.209882377566733558e+00,1.447512770118445813e+00,-7.089431046293069860e-01,-5.563642860411409652e-01,-8.455881801558500221e-01,5.389501215634049380e-01,-4.628437085600959899e-01,-9.387798022438128553e-01,-1.272365621878670305e+00,1.674164909175434923e+00,-1.970412814830455384e+00,-2.160979862927883688e-01,4.825360253067866312e-01,1.000348061563268942e+00,-8.034633332905651848e-01,2.091345594711689071e-01,-3.703122014180956767e-01,-6.772599978929231268e-01,-4.418137611127734288e-01,6.611015132024415930e-01,-4.851366738766528797e-01,-1.834831495469414930e+00,7.930194862377685228e-01,-3.880262638066561687e-01,-2.833386282463082884e-01,-7.956728787830904537e-01,-2.276587926246214089e-01,2.925212922643919633e+00,-1.382321592452675718e+00,-2.451378940224097913e-01,5.988914226450435807e-01,1.457446201536370722e+00,8.393801715953465026e-01,-3.772141249142365593e-01,1.124953625078839003e+00,-1.463298128789878305e-01,-1.383696090757058350e+00,-4.994577643559973690e-01,-1.374811570390178428e+00,-3.537240082891556225e-01
-9.169272830837630339e-01,-1.350780176552204503e+00,-9.279114350539455769e-01,5.026860162609187999e-01,2.441420151686998774e-01,2.055331821626812605e+00,-2.028696056252687618e-01,8.545969565708198823e-02,5.745769763405227382e-01,-1.708870091988908380e+00,-1.133298148499076285e+00,-4.964684877883325242e-01,-2.769908797689814017e-01,8.894611440507307343e-01,-1.363520906815156364e+00,-2.297347438468771985e-01,-1.473793666846869632e+00,-1.178537856837639897e+00,2.210325614226651691e-01,2.187671234934266129e-01,-1.717753601587638679e+00,-1.461428553581740175e+00,-6.539855898103950071e-01,-1.909902453515146092e+00,-6.231321670605196594e-01,-3.642176795261180544e-01,1.176303852067391409e+00,1.338635881843605491e+00,8.094677338164660285e-02,-7.538079793205791912e-01,-3.699305127864793707e-01,2.784384070027515201e-01,-3.212346883995285673e-01,-1.073927075603390863e-03,-2.535718684625304364e-01,-9.997361106844929735e-01,-1.312333134281189251e+00,4.675935099688373620e-01,-1.395695254629570892e+00,1.824260261281149820e+00,-6.410250847827891896e-01,1.173420318150508956e+00,-5.957558094395850601e-01,1.115167773093784787e+00,-3.549991122576909852e-01,1.333278130255071137e+00,-1.391245155970457281e+00,-1.484592422178008908e+00,-6.576521616250675661e-01,-2.699722226589590934e-01,5.602842315187814837e-01,-7.136529322400688713e-01,-1.289044567195759328e+00,-5.980547226792645166e-01,1.942549076229855842e-01,6.083216242329134715e-01,7.290519964673231046e-01,3.279099433309600187e-01,1.120218455548578351e+00,4.607090346790582158e-01,-1.561859694950144206e+00,-6.200301879883369782e-01,-1.432712187920872404e+00,-1.451372361951334122e+00,-1.742171066090259790e-01,-9.314417278477937767e-01,-5.091804925894836964e-02,-1.269730793983498529e+00,4.873443693498176743e-01,7.610252910871344589e-01,-1.844227027964816079e+00,-1.064063299557951314e+00,-8.758782948136792923e-01,-2.975891748954407334e-01,5.983241923843234389e-01,-2.449552065472435203e+00,3.326341093327375709e-01,-1.656081470207239059e+00,-1.653448880239147600e+00,6.536009747927836733e-01,3.637030301199642435e-01,5.991127486988803152e-01,4.217211202047540519e-01,-2.199140847478603666e-01,-4.558398076716045355e-01,1.012617716616189378e+00,8.544063565485862655e-02,-1.408492210715453163e+00,-2.756174382107140844e-02,-5.453727178329326186e-01,4.886254497510123529e-01,-8.115558262128254319e-02,-2.620806791958957938e+00,3.511595681567208360e-01,4.660146682593968026e-01,-4.226513749622779481e-01,-4.024858175191544651e-01,-9.894238207789471939e-01,7.824062364113857360e-01,4.536229909126534010e-01,-6.803229747944478101e-02
4.271409872665082874e-01,2.239539077694460978e-01,-4.745304850780820982e-01,-7.459912361892050425e-01,4.865005387216487787e-01,-2.164296036611769392e+00,3.542775351659396832e-01,1.476833606453025090e-02,9.485834117852116609e-01,-2.500849545206792479e-01,3.406329059474060283e-01,-6.501944732496380830e-01,1.278396286076184385e+00,2.441871116415330056e-01,-3.346305247205301758e-01,8.612740653744399566e-02,-2.028165385399544052e-01,-1.042148807736721805e+00,3.972610561909839522e-01,1.319208399776482521e-01,1.957183726056909601e+00,3.104763636805195626e-01,4.735979234186683540e-01,3.264916639033282886e-01,4.072174583014646632e-01,2.061069438932640330e-01,-1.402885867800324482e-01,-1.239167527943923597e+00,-7.958369533918268068e-01,-1.263797524251094595e+00,4.053094593549366742e-01,-1.409394449698978979e+00,-1.709640927566926427e+00,-1.278460808353367173e-01,2.118439410734739514e+00,6.193043927123083048e-01,-9.962576093474507788e-01,8.975342059039799827e-03,4.111880215200562350e-01,-1.649219234054877248e+00,-3.147851646229918865e-01,-1.670796172951769742e+00,-5.299205300818936593e-01,-2.251383385800069248e-01,1.798929293195056234e-01,-6.700535781400974722e-01,-5.640723608275205470e-01,2.343747019594134284e-01,-1.128731880101325524e+00,3.111121060430632190e-01,2.771111823357410020e-01,3.802134477512456590e-01,-2.207469099848897651e-02,-1.255279386167505173e-01,-9.623215111186180781e-01,1.224971394264806168e+00,-9.007407890943714968e-01,-1.274985778260538716e+00,1.900749923765610375e-02,1.684276212113211546e+00,-7.664014904976206022e-02,-4.184017776619161633e-01,-1.233788400375083610e-01,-5.389142388392017535e-01,-1.850560798135676421e+00,-7.862180652907595491e-01,-6.818630810970622846e-01,-2.364020355200930901e-01,-1.272881425570693281e-01,-8.265440139111153162e-01,-5.933505560929671629e-01,-1.966212578844251269e+00,-2.437930750224415188e+00,-4.867507552807005533e-01,-1.303883127957949029e+00,1.256294467997755238e+00,-2.786031905068184558e-02,-5.012496160270134560e-01,-5.619160202428137296e-01,-7.143803965825907820e-01,-2.391327404347910246e+00,3.651490518401763648e-03,1.359149255252377397e+00,-5.402582615209337025e-01,-8.984195023865975127e-01,4.512317751746208194e-01,-8.901944080524485381e-01,-1.766587954038483510e-01,-4.495339018330139491e-01,5.885492584804873084e-02,-1.254249691545142431e+00,-5.103344192881971164e-01,1.106944149311593462e+00,1.146140936223004836e+00,-2.481144521298864092e+00,8.154733514489992396e-01,-9.419728508478608653e-02,-9.641625556263941910e-01,-1.302326647181265118e+00,-1.963024531289470076e+00,-2.580941708062149953e-01
-1.166881784811876210e+00,-5.646610612836394649e-01,-2.090223232624087935e+00,-8.906746641485494553e-01,-3.906883474121876643e-01,-6.929306703257488709e-02,-1.750456255254703164e-01,1.205536380671826890e+00,-9.404619599165743304e-01,-8.878240040518655674e-01,-1.184078976415838591e+00,2.904413256865008286e-01,1.755428300931604624e-01,-5.960153854054000000e-01,-1.561709807646770587e+00,-5.402010444562348468e-01,1.184748704421273308e-01,5.253926639840720281e-01,9.172471772668919776e-01,-1.263210670480104270e+00,-2.229580268833097623e-01,-3.952504356875636421e-02,3.441299732796854194e-02,2.991974484626894193e-01,2.168557277898466515e-02,5.303639907789043928e-01,1.003542002798374355e+00,-1.271485558457120302e+00,-1.892663680317588915e+00,-1.430355560918985525e+00,-6.968627078865096136e-01,-5.778583134784610886e-02,-1.232770438317530637e+00,1.131500681570732247e+00,-2.216114208616417613e-01,-1.038317381964101394e+00,2.193383000915596348e-01,3.129657952378106511e-01,-9.737937505898531798e-01,9.145112172277680695e-01,-6.376759890821699639e-02,-6.456441802656137652e-01,-3.850624383231716213e-02,1.006924519140054652e+00,-3.149547716665119790e-01,5.734585079382004125e-01,-2.650677554065111963e+00,-1.745788186962035082e-01,-6.495823591159168853e-01,1.734316395541609657e+00,3.133716528753101471e+00,3.193132992355290356e-01,1.669008351292151360e-01,-1.718278253115274934e+00,-1.220620994081795363e+00,1.243915549338510118e+00,-1.887091015391152704e-01,-9.313519306758234473e-01,-4.884636641425630366e-01,1.076067263688191611e+00,-7.618897007404695776e-02,-1.105742486869038199e+00,5.432762269884343631e-01,5.682685910830344023e-01,1.352237313958458920e+00,-2.002269217536773172e-01,-1.746474401095577056e+00,-1.448445075213747324e-01,-2.999887918365922168e-01,-8.135545589822420487e-01,7.874706031227692860e-01,1.382526510454117119e+00,-8.431676474805344101e-01,3.874343544559906705e-01,-9.077001230169063906e-01,3.227989158526453073e-01,1.711947795070036360e+00,-1.406054976510573429e-01,-1.358927949402310320e+00,-1.641185048543705838e+00,2.062943619572514375e+00,5.375544091887667353e-01,9.228692350264378064e-01,-1.007881855542466898e+00,-1.930912901077430632e-01,-8.936026894600710424e-01,6.484937426855073017e-01,-1.706660695816087925e+00,7.582534092250651225e-01,-1.202703695736067502e+00,-8.049787117650426538e-01,3.130259589926923103e-01,-3.625310182260388925e-01,-2.105036453109989658e+00,2.889925648757095122e-01,2.837509453553463956e-01,3.574143656093534127e-01,-3.741664640123413405e-02,-1.059431762086928686e+00,-4.054319381206643313e-02,4.432063868009141760e-01
1.486233019962051975e-02,-1.006535275169155863e+00,-1.878013294581534876e+00,9.810280550809279132e-02,-1.206812612495238718e-01,-8.589039746794512320e-01,5.941652938477557377e-01,7.268564531822994113e-01,-9.986893506619992644e-02,-1.347464289027890949e+00,-1.446110513095218986e+00,1.362685673968034583e-01,8.302385103833519464e-01,1.436640418302948641e+00,-3.242732642950616473e-01,-1.666119594491866973e+00,1.289908351516302065e-01,-7.629565220850507146e-01,-2.131745267106447628e+00,5.306968662533502190e-01,-1.225846090695024704e-01,-1.866771688790783146e-01,-5.335592808243323493e-01,-2.138448947064264805e-01,-8.027190925018711232e-01,-2.168170625550618791e+00,-5.316976477301023074e-01,-7.387816941095905199e-02,-8.473351454961888796e-02,-1.777193527857717781e+00,4.836958130013136459e-01,6.241523510416079751e-02,1.141237544329693154e+00,1.170686640096672282e-01,1.181421814839406226e-01,9.693252110545629296e-01,-7.698244807069366535e-01,-9.528372222931688618e-02,2.220730565528407918e-01,-1.158082705303699500e+00,1.042726078717339383e-01,-1.365943183989829057e+00,-6.369432470683287217e-01,-6.487939328306246978e-01,4.936165530600496454e-01,1.022819811111242982e+00,-5.588290288500845637e-01,-2.212666052802682859e-01,8.684951837555581200e-01,-3.396376429780310069e-01,-2.432546160014117942e-01,2.176996310462261663e-01,-1.694988451818473241e+00,1.532038488518830954e+00,3.919521979203381967e-01,-1.018340907847106180e-01,1.309025107297072943e-01,-1.995765639253071377e+00,1.046741799221293373e-01,1.465624683980132792e+00,1.046560694634180111e+00,9.536857918291310465e-01,2.228311079731930544e-01,1.370991031437157170e+00,2.433832668372905239e+00,-9.928879640465080314e-01,1.727222614386300981e+00,-3.238253991361241257e-01,-9.818132086866127040e-01,-1.106226812270029169e+00,1.054017533017454766e-01,-7.983108105727193538e-01,-8.793108137699539029e-01,-4.300080119042959947e-01,5.424370930860225037e-01,1.348294814156657306e+00,3.440713901076024595e-01,-6.374483487399755788e-01,-5.543179693302328070e-01,1.560635787853165701e-01,-2.428934970972130181e+00,-9.316991515001117330e-01,-6.660183987423790031e-01,-1.316399687273053898e+00,-1.548973694722873384e+00,-8.855248057701364806e-01,-1.247716765407678619e+00,1.698212646182789554e-01,-4.476060776206315928e-01,-1.275072403709417435e+00,-2.468026338058883162e+00,-3.091936757293715088e-01,8.185001623183305597e-01,9.926710562957419270e-01,-1.464783412538779750e+00,-1.461386175231145154e-02,-8.260982548380887414e-01,-8.178801683416119239e-01,-6.139564813205585780e-01,1.288751466217622488e+00,4.292920770205855274e-01
7.569418654937479785e-01,-1.581533432407344231e+00,-1.301424970024340100e+00,6.612127000709369651e-02,-5.953124208161084119e-02,-1.690377133993380854e+00,-1.503357191627142875e+00,-4.894526255679383375e-01,6.121388013385543614e-01,-1.371466314694582689e+00,1.026033068852876706e+00,-1.212371804497504701e+00,-1.020628888831568215e+00,-1.984605529868389562e-01,1.147161634604968866e-01,1.510445464197912147e+00,7.095322929337054274e-02,-9.723078583175865930e-01,-6.375004128661061753e-02,-9.409494437262458932e-01,-3.668301994973139912e-01,1.067674705086957054e+00,-8.372760618641563735e-01,-3.162310066063718783e-01,1.613592574508849325e-02,3.564082228292513310e-01,6.433881705945772023e-01,-2.387558098425914821e+00,1.063911786699483608e+00,1.331817613778696563e+00,-2.089742350728358566e-01,-1.493636435989980749e+00,-8.592948045938290091e-01,7.046143698589056592e-02,1.909394554209616623e-01,-1.138156654615636088e+00,-2.735419594748290106e-01,-1.754388517122810187e+00,-1.215268148224085271e-01,-4.002370131850120916e-01,1.267735765633597023e+00,3.849765014350918224e-01,4.124975602445571377e-01,9.199180882528585901e-01,-2.200878015211908068e+00,-2.267238752935469281e-01,-1.813455021308153281e+00,-1.267450151607246500e+00,-1.933260136962051456e+00,-1.001960960504022058e+00,-1.665266605853559900e+00,-1.095051709214630209e-04,-1.531682309088726157e+00,6.722578553079285868e-01,-8.017817164388224560e-01,-5.191818296835557511e-01,-1.656839037539505455e+00,5.836594579686174011e-01,2.394581887110975860e+00,-1.109594704457355752e+00,-1.146243608617273813e+00,-1.410938862321464426e-01,9.660834292297872938e-01,5.402806295793958213e-01,-3.263047464034827816e-01,-5.102661919043528505e-01,-1.046173381500511423e+00,-9.489159485184071041e-01,1.303965434473255858e+00,-3.179176806476462502e-01,9.736758044261489831e-01,-7.121961176805930993e-01,1.838093748784102033e+00,6.969469045829300713e-01,4.528590307797798475e-01,-3.754894943691501896e-01,-1.470506384651858178e-01,1.197166899025191800e+00,2.649155791402201809e-01,5.476833126414331065e-01,2.296771229317329938e-02,-4.251179485301113670e-01,-2.356225831460981190e+00,-5.135076119371000392e-01,-1.109454497910427939e+00,-1.576004844288161552e-02,-1.301669507109430413e+00,4.476755854659801859e-01,-2.567459337732151958e-01,-3.701999242187779537e-01,3.848132855468252012e-01,-3.221043676954425394e-01,-1.422715497926461611e-02,2.328080178793424937e-01,-1.616174093006525592e+00,1.733718045928586804e+00,1.274181642574079065e+00,-3.240276528119005461e-01,5.819493141260239089e-01,3.404246568945664686e-01,-2.213274561251250994e+00
-1.042561093684192031e+00,-3.722783777911448100e-01,-1.499023837820190053e-01,2.906757884462158881e-01,-2.081001830267076969e+00,-9.783198001118473264e-02,1.886783773320721558e-01,-8.614832623581493154e-01,-1.711687752790068240e+00,-5.076043980578861525e-01,-1.921903376697345678e+00,-3.962837208021278285e-02,-1.657916804147266943e-01,-1.363766366388147189e+00,2.166583097113009351e-02,-9.243239407273612374e-01,-6.409512356742070871e-01,-1.675371050317437716e+00,-1.202905255422733521e+00,1.997052575496902405e+00,2.205943282593573196e-01,-1.438687030678089951e-01,1.146471318873462653e-01,1.119595253385093636e-01,-2.055291733190448278e-01,-5.086783158357732759e-01,-9.764805430132977859e-01,-1.654717326412326495e+00,5.700244550170839863e-01,7.027873307375238632e-01,1.688520713772910131e+00,-2.021681376576294209e+00,-1.974246002520384236e-01,-7.820708247891017262e-02,-1.204827339971049183e+00,8.006493420911350301e-01,2.012654279329733953e+00,2.852672304104224010e-01,4.355611724719737898e-01,4.167183617863025047e-01,2.697604720341388873e-01,9.927292677976264912e-01,-2.020168109504287379e+00,-5.017452701022021566e-01,-1.326789061953775661e+00,6.677874782933025388e-01,-1.637028578159115177e+00,1.425295211503478932e-01,6.761451665267551592e-01,-1.058267393623570918e+00,-7.403221414852616533e-01,8.966915994379494326e-02,-6.105260999300742703e-02,-5.311260526222503220e-01,1.211736347854942553e+00,-9.296190911031025628e-02,-2.361449223277811260e+00,-2.222497738944841483e+00,-4.086423432781041698e-01,5.944555068580208435e-01,1.029270801745304276e+00,2.356382034413388726e-01,1.200564266183268947e+00,-1.269830784881292640e+00,-8.626007246945069373e-02,-8.958798663995624079e-01,-1.190873479867952944e-01,-7.353693101542108090e-01,6.347535710731313507e-01,-8.159292423266296668e-01,-1.111556726186724520e+00,-1.709184912225520492e+00,9.380818131824293360e-01,5.687843266113608021e-01,8.599704285233679135e-01,-1.010379334394176265e+00,-1.496727102221804273e+00,5.295741840854972793e-01,1.399719231114624707e+00,1.292089176756770152e+00,1.635914041784913842e+00,-1.171624259990455608e+00,7.860819424780364217e-01,-5.023135079945568737e-01,-8.258986493437405763e-01,-4.729583322734463025e-01,-2.137175880058350241e+00,-1.825195006817158794e-01,-2.297933444598895036e+00,-2.488774096164517169e-02,1.387262565760339905e+00,5.999885233738063706e-01,2.449465364203212425e-01,1.313187459410590563e+00,-3.422577493891375555e-01,2.270275116064819354e+00,8.612580995644218973e-01,6.545367702436897250e-01,-8.960074949153692403e-01,-1.002904827563294438e-01,-1.531376088742033792e+00
